net 
{
    node_size = (76 36);
}

node Metastasis
{
    label = "Metastasis";
    position = (500 339);
    states = ("yes"  "no");
}

node Lymph_nodes
{
    label = "Lymph nodes";
    position = (432 389);
    states = ("x0"  "x1_to_3"  "x4_to_9"  "x10_or_more");
}

node Tumour_Size
{
    label = "Tumour Size";
    position = (318 388);
    states = ("x__2_cm"  "x2_to_5_cm"  "x__5_cm");
}

node Tumour_Stage
{
    label = "Tumour Stage";
    position = (304 262);
    states = ("IA"  "IB"  "IIA"  "IIB"  "IIIA_B"  "IIIC"  "IV");
}

node Fatigue_Pre
{
    label = "Fatigue Pre";
    position = (323 72);
    states = ("absent"  "little"  "moderate"  "severe");
}

node Age
{
    label = "Age";
    position = (630 338);
    states = ("x_30"  "x30_39"  "x40_49"  "x50_59"  "x60_69"  "x_69");
}

node Oestrogen
{
    label = "Oestrogen";
    position = (572 400);
    states = ("positive"  "negative");
}

node Adjuvant_therapy
{
    label = "Adjuvant therapy";
    position = (559 227);
    states = ("none"  "chemo_hormone"  "chemotherapy" 
     "hormone_therapy");
}

node Surgery
{
    label = "Surgery";
    position = (424 240);
    states = ("mastectomy"  "breast_conserving");
}

node Fatigue_Post
{
    label = "Fatigue Post";
    position = (436 79);
    states = ("much_better"  "better"  "similar"  "worse"  "much_worse"
    );
}

node Fatigue_Follow
{
    label = "Fatigue Follow";
    position = (537 86);
    states = ("much_better"  "better"  "similar"  "worse"  "much_worse"
    );
}

node Pain_Pre
{
    label = "Pain Pre";
    position = (179 303);
    states = ("absent"  "little"  "moderate"  "severe");
}

node Pain_Post
{
    label = "Pain Post";
    position = (185 169);
    states = ("much_better"  "better"  "similar"  "worse"  "much_worse"
    );
}

node Pain_Follow
{
    label = "Pain Follow";
    position = (188 81);
    states = ("much_better"  "better"  "similar"  "worse"  "much_worse"
    );
}

node Body_Image_Pre
{
    label = "Body Image Pre";
    position = (754 399);
    states = ("positive"  "neutral"  "negative");
}

node Body_Image_Post
{
    label = "Body Image Post";
    position = (755 298);
    states = ("much_better"  "better"  "similar"  "worse"  "much_worse"
    );
}

node Body_Image_Follow
{
    label = "Body Image Follow";
    position = (756 198);
    states = ("much_better"  "better"  "similar"  "worse"  "much_worse"
    );
}

node Survival___10y
{
    label = "Survival > 10y";
    position = (657 89);
    states = ("yes"  "no");
}

node Virtual_Evidence_Body_Image
{
    label = "Virtual Evidence Body Image";
    position = (936 299);
    states = ("decreased"  "increased_or_similar");
}

node Virtual_Evidence_Fatigue
{
    label = "Virtual Evidence Fatigue";
    position = (440 -18);
    states = ("increased"  "decreased_or_similar");
}

node Virtual_Evidence_Pain
{
    label = "Virtual Evidence Pain";
    position = (54 194);
    states = ("increased"  "decreased_or_similar");
}

potential (Metastasis |)
{
    data = (0.33000000 0.67000000);
}

potential (Lymph_nodes |)
{
    data = (0.70000000 0.15000000 0.10000000 0.05000000);
}

potential (Tumour_Size |)
{
    data = (0.70000000 0.20000000 0.10000000);
}

potential (Tumour_Stage | Lymph_nodes Tumour_Size Metastasis)
{
    data = ((((0.00000000 0.00000000 0.00000000 0.00000000 0.00000000 
        0.00000000 1.00000000)
        (1.00000000 0.00000000 0.00000000 0.00000000 0.00000000 
        0.00000000 0.00000000))
        ((0.00000000 0.00000000 0.00000000 0.00000000 0.00000000 
        0.00000000 1.00000000)
        (1.00000000 0.00000000 0.00000000 0.00000000 0.00000000 
        0.00000000 0.00000000))
        ((0.00000000 0.00000000 0.00000000 0.00000000 0.00000000 
        0.00000000 1.00000000)
        (0.00000000 0.00000000 0.00000000 1.00000000 0.00000000 
        0.00000000 0.00000000)))
        (((0.00000000 0.00000000 0.00000000 0.00000000 0.00000000 
        0.00000000 1.00000000)
        (0.00000000 0.00000000 1.00000000 0.00000000 0.00000000 
        0.00000000 0.00000000))
        ((0.00000000 0.00000000 0.00000000 0.00000000 0.00000000 
        0.00000000 1.00000000)
        (0.00000000 0.00000000 0.00000000 1.00000000 0.00000000 
        0.00000000 0.00000000))
        ((0.00000000 0.00000000 0.00000000 0.00000000 0.00000000 
        0.00000000 1.00000000)
        (0.00000000 0.00000000 0.00000000 0.00000000 1.00000000 
        0.00000000 0.00000000)))
        (((0.00000000 0.00000000 0.00000000 0.00000000 0.00000000 
        0.00000000 1.00000000)
        (0.00000000 0.00000000 0.00000000 0.00000000 1.00000000 
        0.00000000 0.00000000))
        ((0.00000000 0.00000000 0.00000000 0.00000000 0.00000000 
        0.00000000 1.00000000)
        (0.00000000 0.00000000 0.00000000 0.00000000 1.00000000 
        0.00000000 0.00000000))
        ((0.00000000 0.00000000 0.00000000 0.00000000 0.00000000 
        0.00000000 1.00000000)
        (0.00000000 0.00000000 0.00000000 0.00000000 1.00000000 
        0.00000000 0.00000000)))
        (((0.00000000 0.00000000 0.00000000 0.00000000 0.00000000 
        0.00000000 1.00000000)
        (0.00000000 0.00000000 0.00000000 0.00000000 0.00000000 
        1.00000000 0.00000000))
        ((0.00000000 0.00000000 0.00000000 0.00000000 0.00000000 
        0.00000000 1.00000000)
        (0.00000000 0.00000000 0.00000000 0.00000000 0.00000000 
        1.00000000 0.00000000))
        ((0.00000000 0.00000000 0.00000000 0.00000000 0.00000000 
        0.00000000 1.00000000)
        (0.00000000 0.00000000 0.00000000 0.00000000 0.00000000 
        1.00000000 0.00000000))));
}

potential (Fatigue_Pre | Metastasis Tumour_Stage)
{
    data = (((0.50000000 0.20000000 0.18000000 0.12000000)
        (0.45000000 0.20000000 0.20000000 0.15000000)
        (0.40000000 0.15000000 0.25000000 0.20000000)
        (0.35000000 0.20000000 0.20000000 0.25000000)
        (0.30000000 0.15000000 0.30000000 0.25000000)
        (0.20000000 0.25000000 0.30000000 0.25000000)
        (0.10000000 0.30000000 0.20000000 0.40000000))
        ((0.63636363 0.18181818 0.13636364 0.04545455)
        (0.60000000 0.20000000 0.10000000 0.10000000)
        (0.57894736 0.15789474 0.15789474 0.10526316)
        (0.50000000 0.15000000 0.20000000 0.15000000)
        (0.45000000 0.20000000 0.25000000 0.10000000)
        (0.40000000 0.20000000 0.20000000 0.20000000)
        (0.30000000 0.20000000 0.25000000 0.25000000)));
}

potential (Age |)
{
    data = (0.00400000 0.00600000 0.15000000 0.20000000 0.40000000 
        0.24000000);
}

potential (Oestrogen |)
{
    data = (0.80000000 0.20000000);
}

potential (Adjuvant_therapy | Metastasis Age Oestrogen)
{
    data = ((((0.00000000 1.00000000 0.00000000 0.00000000)
        (0.00000000 0.00000000 1.00000000 0.00000000))
        ((0.00000000 1.00000000 0.00000000 0.00000000)
        (0.00000000 0.00000000 1.00000000 0.00000000))
        ((0.00000000 1.00000000 0.00000000 0.00000000)
        (0.00000000 0.00000000 1.00000000 0.00000000))
        ((0.00000000 1.00000000 0.00000000 0.00000000)
        (0.00000000 0.00000000 1.00000000 0.00000000))
        ((0.00000000 1.00000000 0.00000000 0.00000000)
        (0.00000000 0.00000000 1.00000000 0.00000000))
        ((0.00000000 0.00000000 1.00000000 0.00000000)
        (0.00000000 0.00000000 0.00000000 1.00000000)))
        (((0.00000000 0.00000000 0.00000000 1.00000000)
        (1.00000000 0.00000000 0.00000000 0.00000000))
        ((0.00000000 0.00000000 0.00000000 1.00000000)
        (1.00000000 0.00000000 0.00000000 0.00000000))
        ((0.00000000 0.00000000 0.00000000 1.00000000)
        (1.00000000 0.00000000 0.00000000 0.00000000))
        ((0.00000000 0.00000000 0.00000000 1.00000000)
        (1.00000000 0.00000000 0.00000000 0.00000000))
        ((0.00000000 0.00000000 0.00000000 1.00000000)
        (1.00000000 0.00000000 0.00000000 0.00000000))
        ((0.00000000 0.00000000 0.00000000 1.00000000)
        (0.50000000 0.50000000 0.00000000 0.00000000))));
}

potential (Surgery | Tumour_Stage)
{
    data = ((0.00000000 1.00000000)
        (0.00000000 1.00000000)
        (0.10000000 0.90000000)
        (0.50000000 0.50000000)
        (0.80000000 0.20000000)
        (1.00000000 0.00000000)
        (1.00000000 0.00000000));
}

potential (Fatigue_Post | Fatigue_Pre Adjuvant_therapy Surgery)
{
    data = ((((0.05000000 0.15000000 0.25000000 0.30000000 0.25000000)
        (0.25000000 0.20000000 0.20000000 0.20000000 0.15000000))
        ((0.05000000 0.10000000 0.15000000 0.20000000 0.50000000)
        (0.10000000 0.10000000 0.20000000 0.20000000 0.40000000))
        ((0.05000000 0.10000000 0.15000000 0.20000000 0.50000000)
        (0.10000000 0.10000000 0.20000000 0.20000000 0.40000000))
        ((0.05000000 0.15000000 0.25000000 0.30000000 0.25000000)
        (0.25000000 0.20000000 0.20000000 0.20000000 0.15000000)))
        (((0.10000000 0.20000000 0.25000000 0.20000000 0.25000000)
        (0.05000000 0.15000000 0.20000000 0.30000000 0.30000000))
        ((0.02000000 0.03000000 0.10000000 0.30000000 0.55000000)
        (0.02000000 0.03000000 0.20000000 0.25000000 0.50000000))
        ((0.02000000 0.03000000 0.10000000 0.30000000 0.55000000)
        (0.02000000 0.03000000 0.20000000 0.25000000 0.50000000))
        ((0.05000000 0.10000000 0.20000000 0.30000000 0.35000000)
        (0.08000000 0.12000000 0.20000000 0.30000000 0.30000000)))
        (((0.15000000 0.20000000 0.30000000 0.20000000 0.15000000)
        (0.10000000 0.25000000 0.35000000 0.20000000 0.10000000))
        ((0.02000000 0.08000000 0.30000000 0.35000000 0.25000000)
        (0.05000000 0.15000000 0.30000000 0.30000000 0.20000000))
        ((0.02000000 0.08000000 0.30000000 0.35000000 0.25000000)
        (0.05000000 0.15000000 0.30000000 0.30000000 0.20000000))
        ((0.15000000 0.20000000 0.30000000 0.20000000 0.15000000)
        (0.10000000 0.25000000 0.35000000 0.20000000 0.10000000)))
        (((0.10000000 0.30000000 0.40000000 0.15000000 0.05000000)
        (0.40000000 0.30000000 0.15000000 0.10000000 0.05000000))
        ((0.10000000 0.30000000 0.30000000 0.20000000 0.10000000)
        (0.15000000 0.35000000 0.25000000 0.15000000 0.10000000))
        ((0.10000000 0.30000000 0.30000000 0.20000000 0.10000000)
        (0.15000000 0.35000000 0.25000000 0.15000000 0.10000000))
        ((0.30000000 0.30000000 0.20000000 0.12000000 0.08000000)
        (0.40000000 0.30000000 0.15000000 0.10000000 0.05000000))));
}

potential (Fatigue_Follow | Fatigue_Post Adjuvant_therapy Surgery)
{
    data = ((((0.10000000 0.13000000 0.20000000 0.32000000 0.25000000)
        (0.07000000 0.15000000 0.25000000 0.33000000 0.20000000))
        ((0.05000000 0.10000000 0.05000000 0.30000000 0.50000000)
        (0.05000000 0.10000000 0.10000000 0.30000000 0.45000000))
        ((0.05000000 0.05344828 0.34482759 0.20689655 0.34482759)
        (0.05000000 0.10000000 0.10000000 0.30000000 0.45000000))
        ((0.05000000 0.18000000 0.20000000 0.32000000 0.25000000)
        (0.10000000 0.12000000 0.25000000 0.33000000 0.20000000)))
        (((0.05000000 0.10000000 0.22000000 0.33000000 0.30000000)
        (0.08000000 0.12000000 0.22000000 0.33000000 0.25000000))
        ((0.01500000 0.03500000 0.10000000 0.30000000 0.55000000)
        (0.01500000 0.03500000 0.20000000 0.25000000 0.50000000))
        ((0.01500000 0.03500000 0.10000000 0.30000000 0.55000000)
        (0.01500000 0.03500000 0.20000000 0.25000000 0.50000000))
        ((0.05000000 0.10000000 0.22000000 0.33000000 0.30000000)
        (0.07000000 0.13000000 0.22000000 0.33000000 0.25000000)))
        (((0.15000000 0.22000000 0.33000000 0.20000000 0.10000000)
        (0.10000000 0.27000000 0.38000000 0.18000000 0.07000000))
        ((0.02000000 0.08000000 0.30000000 0.40000000 0.20000000)
        (0.05000000 0.15000000 0.30000000 0.30000000 0.20000000))
        ((0.02000000 0.08000000 0.30000000 0.40000000 0.20000000)
        (0.05000000 0.15000000 0.30000000 0.30000000 0.20000000))
        ((0.15000000 0.22000000 0.33000000 0.20000000 0.10000000)
        (0.01098901 0.29670330 0.41758242 0.17472527 0.10000000)))
        (((0.22000000 0.33000000 0.35000000 0.07000000 0.03000000)
        (0.27000000 0.33000000 0.25000000 0.10000000 0.05000000))
        ((0.09000000 0.30000000 0.60000000 0.00700000 0.00300000)
        (0.12000000 0.35000000 0.50000000 0.02000000 0.01000000))
        ((0.09000000 0.30000000 0.60000000 0.00700000 0.00300000)
        (0.12000000 0.35000000 0.50000000 0.02000000 0.01000000))
        ((0.22000000 0.33000000 0.35000000 0.07000000 0.03000000)
        (0.31395349 0.38372093 0.29069767 0.00500000 0.00662791)))
        (((0.22000000 0.33000000 0.35000000 0.07000000 0.03000000)
        (0.27000000 0.33000000 0.25000000 0.10000000 0.05000000))
        ((0.09000000 0.30000000 0.60000000 0.00700000 0.00300000)
        (0.12000000 0.35000000 0.50000000 0.02000000 0.01000000))
        ((0.09000000 0.30000000 0.60000000 0.00700000 0.00300000)
        (0.12000000 0.35000000 0.50000000 0.02000000 0.01000000))
        ((0.22000000 0.33000000 0.35000000 0.07000000 0.03000000)
        (0.31395349 0.38372093 0.29069767 0.00500000 0.00662791))));
}

potential (Pain_Pre | Tumour_Stage Metastasis)
{
    data = (((0.40000000 0.40000000 0.18000000 0.02000000)
        (0.50000000 0.30000000 0.15000000 0.05000000))
        ((0.35000000 0.40000000 0.20000000 0.05000000)
        (0.45000000 0.40000000 0.10000000 0.05000000))
        ((0.30000000 0.45000000 0.20000000 0.05000000)
        (0.35000000 0.50000000 0.10000000 0.05000000))
        ((0.25000000 0.40000000 0.25000000 0.10000000)
        (0.30000000 0.40000000 0.20000000 0.10000000))
        ((0.20000000 0.40000000 0.25000000 0.15000000)
        (0.25000000 0.40000000 0.25000000 0.10000000))
        ((0.13636364 0.31818182 0.36363636 0.18181818)
        (0.16666667 0.33333333 0.25000000 0.25000000))
        ((0.04761905 0.14285714 0.57142857 0.23809524)
        (0.10000000 0.20000000 0.60000000 0.10000000)));
}

potential (Pain_Post | Pain_Pre Adjuvant_therapy Surgery Metastasis)
{
    data = (((((0.00000000 0.00000000 0.10000000 0.25000000 0.65000000)
        (0.00000000 0.00000000 0.10000000 0.35000000 0.55000000))
        ((0.00000000 0.00000000 0.10000000 0.30000000 0.60000000)
        (0.00000000 0.00000000 0.20000000 0.40000000 0.40000000)))
        (((0.00000000 0.00000000 0.07000000 0.18000000 0.75000000)
        (0.00000000 0.00000000 0.05000000 0.30000000 0.65000000))
        ((0.00000000 0.00000000 0.10000000 0.25000000 0.65000000)
        (0.00000000 0.00000000 0.10000000 0.40000000 0.50000000)))
        (((0.00000000 0.00000000 0.07000000 0.18000000 0.75000000)
        (0.00000000 0.00000000 0.05000000 0.30000000 0.65000000))
        ((0.00000000 0.00000000 0.10000000 0.25000000 0.65000000)
        (0.00000000 0.00000000 0.10000000 0.40000000 0.50000000)))
        (((0.00000000 0.00000000 0.10000000 0.25000000 0.65000000)
        (0.00000000 0.00000000 0.10000000 0.35000000 0.55000000))
        ((0.00000000 0.00000000 0.10000000 0.30000000 0.60000000)
        (0.00000000 0.00000000 0.20000000 0.40000000 0.40000000))))
        ((((0.00000000 0.05000000 0.20000000 0.30000000 0.45000000)
        (0.00000000 0.05000000 0.35000000 0.30000000 0.30000000))
        ((0.00000000 0.07000000 0.28000000 0.30000000 0.35000000)
        (0.00000000 0.15000000 0.40000000 0.25000000 0.20000000)))
        (((0.00000000 0.05000000 0.20000000 0.30000000 0.45000000)
        (0.00000000 0.06000000 0.30000000 0.34000000 0.30000000))
        ((0.00000000 0.06000000 0.25000000 0.31000000 0.38000000)
        (0.00000000 0.07843137 0.39215686 0.31372549 0.21568627)))
        (((0.00000000 0.05000000 0.20000000 0.30000000 0.45000000)
        (0.00000000 0.05882353 0.29411765 0.33333333 0.31372549))
        ((0.00000000 0.06000000 0.30000000 0.34000000 0.30000000)
        (0.00000000 0.07843137 0.39215686 0.31372549 0.21568627)))
        (((0.00000000 0.05000000 0.20000000 0.30000000 0.45000000)
        (0.00000000 0.05000000 0.35000000 0.30000000 0.30000000))
        ((0.00000000 0.07000000 0.28000000 0.30000000 0.35000000)
        (0.15000000 0.40000000 0.25000000 0.20000000 0.00000000))))
        ((((0.04000000 0.18000000 0.32000000 0.26000000 0.20000000)
        (0.04000000 0.34000000 0.30000000 0.20000000 0.12000000))
        ((0.06000000 0.25000000 0.31000000 0.23000000 0.15000000)
        (0.12000000 0.40000000 0.26000000 0.14000000 0.08000000)))
        (((0.04000000 0.19000000 0.31000000 0.26000000 0.20000000)
        (0.05000000 0.28000000 0.35000000 0.20000000 0.12000000))
        ((0.05000000 0.29000000 0.35000000 0.21000000 0.10000000)
        (0.07000000 0.37000000 0.33000000 0.13000000 0.10000000)))
        (((0.04000000 0.19000000 0.31000000 0.26000000 0.20000000)
        (0.05000000 0.28000000 0.35000000 0.32000000 0.00000000))
        ((0.05000000 0.29000000 0.35000000 0.20000000 0.11000000)
        (0.07000000 0.37000000 0.33000000 0.13000000 0.10000000)))
        (((0.04000000 0.18000000 0.32000000 0.26000000 0.20000000)
        (0.04000000 0.34000000 0.30000000 0.20000000 0.12000000))
        ((0.06000000 0.25000000 0.31000000 0.23000000 0.15000000)
        (0.12000000 0.40000000 0.26000000 0.14000000 0.08000000))))
        ((((0.03000000 0.47000000 0.25000000 0.15000000 0.10000000)
        (0.04000000 0.64000000 0.16000000 0.10000000 0.06000000))
        ((0.05000000 0.58000000 0.19000000 0.11000000 0.07000000)
        (0.10000000 0.70000000 0.10000000 0.06000000 0.04000000)))
        (((0.03000000 0.46000000 0.26000000 0.15000000 0.10000000)
        (0.04000000 0.62000000 0.17000000 0.10000000 0.07000000))
        ((0.04000000 0.63000000 0.17000000 0.10000000 0.06000000)
        (0.05000000 0.70000000 0.13000000 0.07000000 0.05000000)))
        (((0.03000000 0.46000000 0.26000000 0.15000000 0.10000000)
        (0.04000000 0.62000000 0.17000000 0.10000000 0.07000000))
        ((0.04000000 0.63000000 0.17000000 0.10000000 0.06000000)
        (0.05000000 0.70000000 0.13000000 0.07000000 0.05000000)))
        (((0.03000000 0.47000000 0.25000000 0.15000000 0.10000000)
        (0.04000000 0.64000000 0.16000000 0.10000000 0.06000000))
        ((0.05000000 0.58000000 0.19000000 0.11000000 0.07000000)
        (0.10000000 0.70000000 0.10000000 0.06000000 0.04000000)))));
}

potential (Pain_Follow | Pain_Post Adjuvant_therapy Surgery Metastasis)
{
    data = (((((0.03000000 0.10000000 0.28000000 0.24000000 0.35000000)
        (0.03000000 0.10000000 0.38000000 0.29000000 0.20000000))
        ((0.03131313 0.10000000 0.33333333 0.28282828 0.25252525)
        (0.03000000 0.20000000 0.43000000 0.24000000 0.10000000)))
        (((0.02000000 0.08000000 0.21000000 0.29000000 0.40000000)
        (0.01500000 0.06500000 0.33000000 0.34000000 0.25000000))
        ((0.03000000 0.10000000 0.28000000 0.29000000 0.30000000)
        (0.03000000 0.10000000 0.43000000 0.29000000 0.15000000)))
        (((0.02000000 0.08000000 0.21000000 0.29000000 0.40000000)
        (0.01500000 0.06500000 0.33000000 0.34000000 0.25000000))
        ((0.01304348 0.10000000 0.37391304 0.25217391 0.26086957)
        (0.03000000 0.10000000 0.43000000 0.29000000 0.15000000)))
        (((0.03000000 0.10000000 0.28000000 0.24000000 0.35000000)
        (0.03000000 0.10000000 0.38000000 0.29000000 0.20000000))
        ((0.03131313 0.10000000 0.33333333 0.28282828 0.25252525)
        (0.03000000 0.20000000 0.43000000 0.24000000 0.10000000))))
        ((((0.01500000 0.06500000 0.23000000 0.29000000 0.40000000)
        (0.01500000 0.06500000 0.38000000 0.29000000 0.25000000))
        ((0.02000000 0.08000000 0.31000000 0.29000000 0.30000000)
        (0.03000000 0.15000000 0.43000000 0.24000000 0.15000000)))
        (((0.01500000 0.06500000 0.23000000 0.29000000 0.40000000)
        (0.02000000 0.07000000 0.33000000 0.33000000 0.25000000))
        ((0.01580808 0.06500000 0.28282828 0.30303030 0.33333333)
        (0.02784314 0.08000000 0.42156863 0.30392157 0.16666667)))
        (((0.01500000 0.06500000 0.23000000 0.29000000 0.40000000)
        (0.02000000 0.07000000 0.33000000 0.33000000 0.25000000))
        ((0.20000000 0.32356021 0.14659686 0.15706806 0.17277487)
        (0.03000000 0.07784314 0.42156863 0.30392157 0.16666667)))
        (((0.01500000 0.06500000 0.23000000 0.29000000 0.40000000)
        (0.01500000 0.06500000 0.38000000 0.29000000 0.25000000))
        ((0.02000000 0.08000000 0.31000000 0.29000000 0.30000000)
        (0.05000000 0.13000000 0.43000000 0.24000000 0.15000000))))
        ((((0.04395604 0.13186813 0.37362637 0.30054945 0.15000000)
        (0.04000000 0.36000000 0.33000000 0.17000000 0.10000000))
        ((0.06000000 0.27000000 0.34000000 0.20000000 0.13000000)
        (0.12000000 0.42000000 0.29000000 0.12000000 0.05000000)))
        (((0.04000000 0.21000000 0.34000000 0.30000000 0.11000000)
        (0.05000000 0.30000000 0.38000000 0.17000000 0.10000000))
        ((0.05000000 0.31000000 0.38000000 0.16000000 0.10000000)
        (0.07000000 0.39000000 0.36000000 0.13000000 0.05000000)))
        (((0.04000000 0.21000000 0.34000000 0.26000000 0.15000000)
        (0.05000000 0.30000000 0.38000000 0.17000000 0.10000000))
        ((0.05000000 0.31000000 0.38000000 0.16000000 0.10000000)
        (0.07000000 0.39000000 0.36000000 0.13000000 0.05000000)))
        (((0.04000000 0.20000000 0.35000000 0.26000000 0.15000000)
        (0.04000000 0.36000000 0.33000000 0.17000000 0.10000000))
        ((0.06000000 0.27000000 0.34000000 0.20000000 0.13000000)
        (0.12000000 0.42000000 0.29000000 0.12000000 0.05000000))))
        ((((0.18000000 0.33000000 0.40000000 0.06000000 0.03000000)
        (0.32000000 0.36000000 0.20000000 0.08000000 0.04000000))
        ((0.28282828 0.34343434 0.22323232 0.10000000 0.05050505)
        (0.40000000 0.34000000 0.10000000 0.06000000 0.10000000)))
        (((0.17000000 0.33000000 0.40000000 0.07000000 0.03000000)
        (0.28000000 0.38000000 0.20000000 0.10000000 0.04000000))
        ((0.28000000 0.39000000 0.20000000 0.09000000 0.04000000)
        (0.40000000 0.34000000 0.11000000 0.10000000 0.05000000)))
        (((0.17000000 0.33000000 0.37000000 0.10000000 0.03000000)
        (0.28000000 0.38000000 0.22000000 0.08000000 0.04000000))
        ((0.28000000 0.39000000 0.21000000 0.08000000 0.04000000)
        (0.40000000 0.34000000 0.11000000 0.10000000 0.05000000)))
        (((0.19000000 0.32000000 0.40000000 0.06000000 0.03000000)
        (0.33000000 0.35000000 0.20000000 0.08000000 0.04000000))
        ((0.28000000 0.34000000 0.23000000 0.10000000 0.05000000)
        (0.40000000 0.34000000 0.10000000 0.06000000 0.10000000))))
        ((((0.18000000 0.33000000 0.40000000 0.06000000 0.03000000)
        (0.32000000 0.36000000 0.20000000 0.08000000 0.04000000))
        ((0.28282828 0.34343434 0.22323232 0.10000000 0.05050505)
        (0.40000000 0.34000000 0.10000000 0.06000000 0.10000000)))
        (((0.17000000 0.33000000 0.40000000 0.07000000 0.03000000)
        (0.28000000 0.38000000 0.20000000 0.10000000 0.04000000))
        ((0.28000000 0.39000000 0.20000000 0.09000000 0.04000000)
        (0.40000000 0.34000000 0.11000000 0.10000000 0.05000000)))
        (((0.17000000 0.33000000 0.37000000 0.10000000 0.03000000)
        (0.28000000 0.38000000 0.22000000 0.08000000 0.04000000))
        ((0.28000000 0.39000000 0.21000000 0.08000000 0.04000000)
        (0.40000000 0.34000000 0.11000000 0.10000000 0.05000000)))
        (((0.19000000 0.32000000 0.40000000 0.06000000 0.03000000)
        (0.33000000 0.35000000 0.20000000 0.08000000 0.04000000))
        ((0.28000000 0.34000000 0.23000000 0.10000000 0.05000000)
        (0.40000000 0.34000000 0.10000000 0.06000000 0.10000000)))));
}

potential (Body_Image_Pre | Age)
{
    data = ((0.50000000 0.30000000 0.20000000)
        (0.55000000 0.30000000 0.15000000)
        (0.60000000 0.20000000 0.20000000)
        (0.60000000 0.25000000 0.15000000)
        (0.65000000 0.25000000 0.10000000)
        (0.70000000 0.25000000 0.05000000));
}

potential (Body_Image_Post | Body_Image_Pre Age Surgery)
{
    data = ((((0.00000000 0.00000000 0.25000000 0.25000000 0.50000000)
        (0.00000000 0.00000000 0.45000000 0.35000000 0.20000000))
        ((0.00000000 0.00000000 0.30000000 0.25000000 0.45000000)
        (0.00000000 0.00000000 0.50000000 0.35000000 0.15000000))
        ((0.00000000 0.00000000 0.32000000 0.27000000 0.41000000)
        (0.00000000 0.00000000 0.50000000 0.27272727 0.22727273))
        ((0.00000000 0.00000000 0.35000000 0.33000000 0.32000000)
        (0.00000000 0.00000000 0.58000000 0.26000000 0.16000000))
        ((0.00000000 0.00000000 0.40000000 0.31000000 0.29000000)
        (0.00000000 0.00000000 0.62000000 0.27000000 0.11000000))
        ((0.00000000 0.00000000 0.45000000 0.34000000 0.21000000)
        (0.00000000 0.00000000 0.68000000 0.26000000 0.06000000)))
        (((0.11000000 0.12000000 0.25000000 0.26000000 0.26000000)
        (0.14000000 0.14000000 0.54000000 0.09000000 0.09000000))
        ((0.13000000 0.14000000 0.24000000 0.25000000 0.24000000)
        (0.17000000 0.18000000 0.45000000 0.10000000 0.10000000))
        ((0.14000000 0.15000000 0.26000000 0.23000000 0.22000000)
        (0.15000000 0.15000000 0.50000000 0.10000000 0.10000000))
        ((0.16000000 0.17000000 0.35000000 0.16000000 0.16000000)
        (0.11000000 0.11000000 0.62000000 0.08000000 0.08000000))
        ((0.19000000 0.19000000 0.41000000 0.11000000 0.10000000)
        (0.11000000 0.11000000 0.65000000 0.07000000 0.06000000))
        ((0.20000000 0.20000000 0.41000000 0.10000000 0.09000000)
        (0.10000000 0.10000000 0.69000000 0.06000000 0.05000000)))
        (((0.03000000 0.17000000 0.40000000 0.20000000 0.20000000)
        (0.10000000 0.30000000 0.30000000 0.15000000 0.15000000))
        ((0.09000000 0.15000000 0.38000000 0.19000000 0.19000000)
        (0.12000000 0.27000000 0.31000000 0.15000000 0.15000000))
        ((0.12000000 0.17000000 0.36000000 0.18000000 0.17000000)
        (0.15000000 0.31000000 0.27000000 0.14000000 0.13000000))
        ((0.13000000 0.21000000 0.33000000 0.17000000 0.16000000)
        (0.18000000 0.21000000 0.31000000 0.15000000 0.15000000))
        ((0.15000000 0.23000000 0.31000000 0.16000000 0.15000000)
        (0.18000000 0.24000000 0.29000000 0.15000000 0.14000000))
        ((0.18000000 0.22000000 0.30000000 0.15000000 0.15000000)
        (0.20000000 0.25000000 0.28000000 0.14000000 0.13000000))));
}

potential (Body_Image_Follow | Body_Image_Post Age Surgery)
{
    data = ((((0.03000000 0.17000000 0.25000000 0.30000000 0.25000000)
        (0.05000000 0.15000000 0.30000000 0.35000000 0.15000000))
        ((0.03750000 0.20000000 0.20000000 0.31250000 0.25000000)
        (0.05000000 0.20000000 0.30000000 0.35000000 0.10000000))
        ((0.04000000 0.08000000 0.25000000 0.27000000 0.36000000)
        (0.04545455 0.20000000 0.30000000 0.27272727 0.18181818))
        ((0.05000000 0.10000000 0.25000000 0.33000000 0.27000000)
        (0.03000000 0.20000000 0.40000000 0.26000000 0.11000000))
        ((0.05000000 0.10000000 0.30000000 0.31000000 0.24000000)
        (0.05000000 0.20000000 0.42000000 0.27000000 0.06000000))
        ((0.05000000 0.10000000 0.35000000 0.34000000 0.16000000)
        (0.05000000 0.20000000 0.48000000 0.26000000 0.01000000)))
        (((0.10000000 0.13000000 0.30000000 0.32000000 0.15000000)
        (0.10000000 0.17000000 0.59000000 0.08000000 0.06000000))
        ((0.10000000 0.17000000 0.29000000 0.29000000 0.15000000)
        (0.10000000 0.25000000 0.50000000 0.09000000 0.06000000))
        ((0.10000000 0.19000000 0.31000000 0.30000000 0.10000000)
        (0.10000000 0.20000000 0.55000000 0.10000000 0.05000000))
        ((0.11000000 0.22000000 0.40000000 0.18000000 0.09000000)
        (0.07000000 0.15000000 0.67000000 0.07000000 0.04000000))
        ((0.15000000 0.23000000 0.46000000 0.10000000 0.06000000)
        (0.10000000 0.17000000 0.65000000 0.05000000 0.03000000))
        ((0.20000000 0.36000000 0.30000000 0.10000000 0.04000000)
        (0.10000000 0.24000000 0.60000000 0.04000000 0.02000000)))
        (((0.05000000 0.19000000 0.40000000 0.30000000 0.06000000)
        (0.12000000 0.32000000 0.30000000 0.20000000 0.06000000))
        ((0.11000000 0.17000000 0.40000000 0.27000000 0.05000000)
        (0.14000000 0.29000000 0.30000000 0.22000000 0.05000000))
        ((0.14000000 0.19000000 0.37000000 0.25000000 0.05000000)
        (0.17000000 0.33000000 0.30000000 0.17000000 0.03000000))
        ((0.15000000 0.23000000 0.35000000 0.25000000 0.02000000)
        (0.20000000 0.23000000 0.35000000 0.20000000 0.02000000))
        ((0.17000000 0.25000000 0.31000000 0.25000000 0.02000000)
        (0.20000000 0.26000000 0.30000000 0.22000000 0.02000000))
        ((0.20000000 0.24000000 0.29000000 0.25000000 0.02000000)
        (0.22000000 0.27000000 0.30000000 0.20000000 0.01000000)))
        (((0.05000000 0.24000000 0.30000000 0.35000000 0.06000000)
        (0.12000000 0.37000000 0.20000000 0.25000000 0.06000000))
        ((0.11000000 0.22000000 0.30000000 0.32000000 0.05000000)
        (0.14000000 0.34000000 0.20000000 0.27000000 0.05000000))
        ((0.14000000 0.24000000 0.27000000 0.30000000 0.05000000)
        (0.17000000 0.38000000 0.20000000 0.22000000 0.03000000))
        ((0.15000000 0.25000000 0.25000000 0.33000000 0.02000000)
        (0.20000000 0.28000000 0.25000000 0.25000000 0.02000000))
        ((0.17000000 0.30000000 0.21000000 0.30000000 0.02000000)
        (0.20000000 0.31000000 0.20000000 0.27000000 0.02000000))
        ((0.20000000 0.29000000 0.19000000 0.30000000 0.02000000)
        (0.22000000 0.32000000 0.20000000 0.25000000 0.01000000)))
        (((0.05000000 0.20000000 0.35000000 0.37000000 0.03000000)
        (0.12000000 0.37000000 0.25000000 0.23000000 0.03000000))
        ((0.11000000 0.22000000 0.35000000 0.29000000 0.03000000)
        (0.14000000 0.34000000 0.25000000 0.24000000 0.03000000))
        ((0.14000000 0.24000000 0.32000000 0.27000000 0.03000000)
        (0.17000000 0.38000000 0.25000000 0.19000000 0.01000000))
        ((0.15000000 0.28000000 0.30000000 0.26000000 0.01000000)
        (0.20000000 0.28000000 0.30000000 0.21300000 0.00700000))
        ((0.17000000 0.30000000 0.26000000 0.26000000 0.01000000)
        (0.20000000 0.31000000 0.25000000 0.23000000 0.01000000))
        ((0.20000000 0.29000000 0.24000000 0.25700000 0.01300000)
        (0.22000000 0.32000000 0.25000000 0.20600000 0.00400000))));
}

potential (Survival___10y | Surgery Adjuvant_therapy Age Tumour_Stage)
{
    data = (((((0.99000000 0.01000000)
        (0.98000000 0.02000000)
        (0.92000000 0.08000000)
        (0.86000000 0.14000000)
        (0.80000000 0.20000000)
        (0.77000000 0.23000000)
        (0.17000000 0.83000000))
        ((0.99000000 0.01000000)
        (0.98000000 0.02000000)
        (0.92000000 0.08000000)
        (0.86000000 0.14000000)
        (0.82000000 0.18000000)
        (0.75000000 0.25000000)
        (0.15000000 0.85000000))
        ((0.99000000 0.01000000)
        (0.98000000 0.02000000)
        (0.91000000 0.09000000)
        (0.85000000 0.15000000)
        (0.80000000 0.20000000)
        (0.73000000 0.27000000)
        (0.14000000 0.86000000))
        ((0.99000000 0.01000000)
        (0.98000000 0.02000000)
        (0.90000000 0.10000000)
        (0.84000000 0.16000000)
        (0.79000000 0.21000000)
        (0.72000000 0.28000000)
        (0.12000000 0.88000000))
        ((0.99000000 0.01000000)
        (0.98000000 0.02000000)
        (0.89000000 0.11000000)
        (0.83000000 0.17000000)
        (0.78000000 0.22000000)
        (0.69000000 0.31000000)
        (0.10000000 0.90000000))
        ((0.98000000 0.02000000)
        (0.96000000 0.04000000)
        (0.84000000 0.16000000)
        (0.76000000 0.24000000)
        (0.68000000 0.32000000)
        (0.62000000 0.38000000)
        (0.08000000 0.92000000)))
        (((0.99000000 0.01000000)
        (0.98000000 0.02000000)
        (0.97000000 0.03000000)
        (0.92000000 0.08000000)
        (0.88000000 0.12000000)
        (0.81000000 0.19000000)
        (0.21000000 0.79000000))
        ((0.99000000 0.01000000)
        (0.98000000 0.02000000)
        (0.96000000 0.04000000)
        (0.89000000 0.11000000)
        (0.84000000 0.16000000)
        (0.78000000 0.22000000)
        (0.17000000 0.83000000))
        ((0.99000000 0.01000000)
        (0.98000000 0.02000000)
        (0.94000000 0.06000000)
        (0.88000000 0.12000000)
        (0.76000000 0.24000000)
        (0.77000000 0.23000000)
        (0.17000000 0.83000000))
        ((0.99000000 0.01000000)
        (0.98000000 0.02000000)
        (0.90000000 0.10000000)
        (0.84000000 0.16000000)
        (0.79000000 0.21000000)
        (0.72000000 0.28000000)
        (0.12000000 0.88000000))
        ((0.99000000 0.01000000)
        (0.98000000 0.02000000)
        (0.89000000 0.11000000)
        (0.83000000 0.17000000)
        (0.78000000 0.22000000)
        (0.69000000 0.31000000)
        (0.10000000 0.90000000))
        ((0.98000000 0.02000000)
        (0.96000000 0.04000000)
        (0.84000000 0.16000000)
        (0.76000000 0.24000000)
        (0.68000000 0.32000000)
        (0.62000000 0.38000000)
        (0.08000000 0.92000000)))
        (((0.99000000 0.01000000)
        (0.98000000 0.02000000)
        (0.94000000 0.06000000)
        (0.88000000 0.12000000)
        (0.82000000 0.18000000)
        (0.78000000 0.22000000)
        (0.19000000 0.81000000))
        ((0.99000000 0.01000000)
        (0.98000000 0.02000000)
        (0.92000000 0.08000000)
        (0.88000000 0.12000000)
        (0.85000000 0.15000000)
        (0.78000000 0.22000000)
        (0.17000000 0.83000000))
        ((0.99000000 0.01000000)
        (0.98000000 0.02000000)
        (0.92000000 0.08000000)
        (0.88000000 0.12000000)
        (0.81000000 0.19000000)
        (0.74000000 0.26000000)
        (0.16000000 0.84000000))
        ((0.99000000 0.01000000)
        (0.98000000 0.02000000)
        (0.90000000 0.10000000)
        (0.84000000 0.16000000)
        (0.79000000 0.21000000)
        (0.72000000 0.28000000)
        (0.12000000 0.88000000))
        ((0.99000000 0.01000000)
        (0.98000000 0.02000000)
        (0.89000000 0.11000000)
        (0.83000000 0.17000000)
        (0.78000000 0.22000000)
        (0.69000000 0.31000000)
        (0.10000000 0.90000000))
        ((0.98000000 0.02000000)
        (0.96000000 0.04000000)
        (0.84000000 0.16000000)
        (0.76000000 0.24000000)
        (0.68000000 0.32000000)
        (0.62000000 0.38000000)
        (0.08000000 0.92000000)))
        (((0.99000000 0.01000000)
        (0.98000000 0.02000000)
        (0.94000000 0.06000000)
        (0.89000000 0.11000000)
        (0.84000000 0.16000000)
        (0.79000000 0.21000000)
        (0.18000000 0.82000000))
        ((0.99000000 0.01000000)
        (0.98000000 0.02000000)
        (0.92000000 0.08000000)
        (0.86000000 0.14000000)
        (0.82000000 0.18000000)
        (0.77000000 0.23000000)
        (0.16000000 0.84000000))
        ((0.99000000 0.01000000)
        (0.98000000 0.02000000)
        (0.91000000 0.09000000)
        (0.85000000 0.15000000)
        (0.81000000 0.19000000)
        (0.75000000 0.25000000)
        (0.14000000 0.86000000))
        ((0.99000000 0.01000000)
        (0.98000000 0.02000000)
        (0.90000000 0.10000000)
        (0.84000000 0.16000000)
        (0.79000000 0.21000000)
        (0.72000000 0.28000000)
        (0.12000000 0.88000000))
        ((0.99000000 0.01000000)
        (0.98000000 0.02000000)
        (0.89000000 0.11000000)
        (0.83000000 0.17000000)
        (0.78000000 0.22000000)
        (0.69000000 0.31000000)
        (0.10000000 0.90000000))
        ((0.98000000 0.02000000)
        (0.96000000 0.04000000)
        (0.84000000 0.16000000)
        (0.76000000 0.24000000)
        (0.68000000 0.32000000)
        (0.62000000 0.38000000)
        (0.08000000 0.92000000))))
        ((((0.98000000 0.02000000)
        (0.96000000 0.04000000)
        (0.88000000 0.12000000)
        (0.82000000 0.18000000)
        (0.76000000 0.24000000)
        (0.71000000 0.29000000)
        (0.09000000 0.91000000))
        ((0.98000000 0.02000000)
        (0.97000000 0.03000000)
        (0.92000000 0.08000000)
        (0.82000000 0.18000000)
        (0.78000000 0.22000000)
        (0.69000000 0.31000000)
        (0.40000000 0.60000000))
        ((0.90825691 0.09174309)
        (0.98000000 0.02000000)
        (0.91000000 0.09000000)
        (0.83000000 0.17000000)
        (0.80000000 0.20000000)
        (0.71000000 0.29000000)
        (0.07000000 0.93000000))
        ((0.99000000 0.01000000)
        (0.98000000 0.02000000)
        (0.88000000 0.12000000)
        (0.81000000 0.19000000)
        (0.77000000 0.23000000)
        (0.70000000 0.30000000)
        (0.07000000 0.93000000))
        ((0.98000000 0.02000000)
        (0.98000000 0.02000000)
        (0.87000000 0.13000000)
        (0.80000000 0.20000000)
        (0.72000000 0.28000000)
        (0.67000000 0.33000000)
        (0.05000000 0.95000000))
        ((0.97000000 0.03000000)
        (0.92000000 0.08000000)
        (0.80000000 0.20000000)
        (0.70000000 0.30000000)
        (0.61000000 0.39000000)
        (0.51000000 0.49000000)
        (0.02000000 0.98000000)))
        (((0.99000000 0.01000000)
        (0.98000000 0.02000000)
        (0.92000000 0.08000000)
        (0.88000000 0.12000000)
        (0.82000000 0.18000000)
        (0.78000000 0.22000000)
        (0.14000000 0.86000000))
        ((0.99000000 0.01000000)
        (0.98000000 0.02000000)
        (0.91000000 0.09000000)
        (0.84000000 0.16000000)
        (0.82000000 0.18000000)
        (0.72000000 0.28000000)
        (0.13000000 0.87000000))
        ((0.99000000 0.01000000)
        (0.98000000 0.02000000)
        (0.91000000 0.09000000)
        (0.85000000 0.15000000)
        (0.78000000 0.22000000)
        (0.72000000 0.28000000)
        (0.12000000 0.88000000))
        ((0.99000000 0.01000000)
        (0.98000000 0.02000000)
        (0.90000000 0.10000000)
        (0.84000000 0.16000000)
        (0.79000000 0.21000000)
        (0.72000000 0.28000000)
        (0.12000000 0.88000000))
        ((0.99000000 0.01000000)
        (0.98000000 0.02000000)
        (0.89000000 0.11000000)
        (0.83000000 0.17000000)
        (0.78000000 0.22000000)
        (0.68000000 0.32000000)
        (0.09000000 0.91000000))
        ((0.98000000 0.02000000)
        (0.96000000 0.04000000)
        (0.84000000 0.16000000)
        (0.76000000 0.24000000)
        (0.66000000 0.34000000)
        (0.58000000 0.42000000)
        (0.06000000 0.94000000)))
        (((0.99000000 0.01000000)
        (0.98000000 0.02000000)
        (0.92000000 0.08000000)
        (0.86000000 0.14000000)
        (0.79000000 0.21000000)
        (0.75000000 0.25000000)
        (0.15000000 0.85000000))
        ((0.99000000 0.01000000)
        (0.98000000 0.02000000)
        (0.92000000 0.08000000)
        (0.86000000 0.14000000)
        (0.82000000 0.18000000)
        (0.74000000 0.26000000)
        (0.13000000 0.87000000))
        ((0.99000000 0.01000000)
        (0.98000000 0.02000000)
        (0.91000000 0.09000000)
        (0.85000000 0.15000000)
        (0.80000000 0.20000000)
        (0.68000000 0.32000000)
        (0.10000000 0.90000000))
        ((0.99000000 0.01000000)
        (0.98000000 0.02000000)
        (0.90000000 0.10000000)
        (0.84000000 0.16000000)
        (0.79000000 0.21000000)
        (0.60000000 0.40000000)
        (0.06000000 0.94000000))
        ((0.99000000 0.01000000)
        (0.98000000 0.02000000)
        (0.89000000 0.11000000)
        (0.83000000 0.17000000)
        (0.78000000 0.22000000)
        (0.64000000 0.36000000)
        (0.05000000 0.95000000))
        ((0.98000000 0.02000000)
        (0.96000000 0.04000000)
        (0.80000000 0.20000000)
        (0.71000000 0.29000000)
        (0.52000000 0.48000000)
        (0.48000000 0.52000000)
        (0.02000000 0.98000000)))
        (((0.99000000 0.01000000)
        (0.98000000 0.02000000)
        (0.92000000 0.08000000)
        (0.86000000 0.14000000)
        (0.80000000 0.20000000)
        (0.72000000 0.28000000)
        (0.10000000 0.90000000))
        ((0.99000000 0.01000000)
        (0.98000000 0.02000000)
        (0.92000000 0.08000000)
        (0.86000000 0.14000000)
        (0.82000000 0.18000000)
        (0.72000000 0.28000000)
        (0.10000000 0.90000000))
        ((0.99000000 0.01000000)
        (0.98000000 0.02000000)
        (0.91000000 0.09000000)
        (0.85000000 0.15000000)
        (0.80000000 0.20000000)
        (0.71000000 0.29000000)
        (0.05000000 0.95000000))
        ((0.99000000 0.01000000)
        (0.98000000 0.02000000)
        (0.90000000 0.10000000)
        (0.84000000 0.16000000)
        (0.79000000 0.21000000)
        (0.62000000 0.38000000)
        (0.03000000 0.97000000))
        ((0.99000000 0.01000000)
        (0.98000000 0.02000000)
        (0.89000000 0.11000000)
        (0.83000000 0.17000000)
        (0.78000000 0.22000000)
        (0.62000000 0.38000000)
        (0.01000000 0.99000000))
        ((0.98000000 0.02000000)
        (0.96000000 0.04000000)
        (0.84000000 0.16000000)
        (0.76000000 0.24000000)
        (0.61000000 0.39000000)
        (0.46000000 0.54000000)
        (0.01000000 0.99000000)))));
}

potential (Virtual_Evidence_Body_Image | Body_Image_Pre Body_Image_Post Body_Image_Follow)
{
    data = ((((0.00000000 1.00000000)
        (0.00000000 1.00000000)
        (0.00000000 1.00000000)
        (0.20000000 0.80000000)
        (1.00000000 0.00000000))
        ((0.00000000 1.00000000)
        (0.00000000 1.00000000)
        (0.00000000 1.00000000)
        (0.50000000 0.50000000)
        (1.00000000 0.00000000))
        ((0.00000000 1.00000000)
        (0.00000000 1.00000000)
        (0.00000000 1.00000000)
        (1.00000000 0.00000000)
        (1.00000000 0.00000000))
        ((0.00000000 1.00000000)
        (0.50000000 0.50000000)
        (1.00000000 0.00000000)
        (1.00000000 0.00000000)
        (1.00000000 0.00000000))
        ((0.00000000 1.00000000)
        (0.80000000 0.20000000)
        (1.00000000 0.00000000)
        (1.00000000 0.00000000)
        (1.00000000 0.00000000)))
        (((0.00000000 1.00000000)
        (0.00000000 1.00000000)
        (0.00000000 1.00000000)
        (0.20000000 0.80000000)
        (1.00000000 0.00000000))
        ((0.00000000 1.00000000)
        (0.00000000 1.00000000)
        (0.00000000 1.00000000)
        (0.50000000 0.50000000)
        (1.00000000 0.00000000))
        ((0.00000000 1.00000000)
        (0.00000000 1.00000000)
        (0.00000000 1.00000000)
        (1.00000000 0.00000000)
        (1.00000000 0.00000000))
        ((0.00000000 1.00000000)
        (0.50000000 0.50000000)
        (1.00000000 0.00000000)
        (1.00000000 0.00000000)
        (1.00000000 0.00000000))
        ((0.00000000 1.00000000)
        (0.80000000 0.20000000)
        (1.00000000 0.00000000)
        (1.00000000 0.00000000)
        (1.00000000 0.00000000)))
        (((0.00000000 1.00000000)
        (0.00000000 1.00000000)
        (0.00000000 1.00000000)
        (0.20000000 0.80000000)
        (1.00000000 0.00000000))
        ((0.00000000 1.00000000)
        (0.00000000 1.00000000)
        (0.00000000 1.00000000)
        (0.50000000 0.50000000)
        (1.00000000 0.00000000))
        ((0.00000000 1.00000000)
        (0.00000000 1.00000000)
        (0.00000000 1.00000000)
        (1.00000000 0.00000000)
        (1.00000000 0.00000000))
        ((0.00000000 1.00000000)
        (0.50000000 0.50000000)
        (1.00000000 0.00000000)
        (1.00000000 0.00000000)
        (1.00000000 0.00000000))
        ((0.00000000 1.00000000)
        (0.80000000 0.20000000)
        (1.00000000 0.00000000)
        (1.00000000 0.00000000)
        (1.00000000 0.00000000))));
}

potential (Virtual_Evidence_Fatigue | Fatigue_Pre Fatigue_Post Fatigue_Follow)
{
    data = ((((0.00000000 1.00000000)
        (0.00000000 1.00000000)
        (0.00000000 1.00000000)
        (0.20000000 0.80000000)
        (1.00000000 0.00000000))
        ((0.00000000 1.00000000)
        (0.00000000 1.00000000)
        (0.00000000 1.00000000)
        (0.50000000 0.50000000)
        (1.00000000 0.00000000))
        ((0.00000000 1.00000000)
        (0.00000000 1.00000000)
        (0.00000000 1.00000000)
        (1.00000000 0.00000000)
        (1.00000000 0.00000000))
        ((0.00000000 1.00000000)
        (0.50000000 0.50000000)
        (1.00000000 0.00000000)
        (1.00000000 0.00000000)
        (1.00000000 0.00000000))
        ((0.00000000 1.00000000)
        (0.80000000 0.20000000)
        (1.00000000 0.00000000)
        (1.00000000 0.00000000)
        (1.00000000 0.00000000)))
        (((0.00000000 1.00000000)
        (0.00000000 1.00000000)
        (0.00000000 1.00000000)
        (0.20000000 0.80000000)
        (1.00000000 0.00000000))
        ((0.00000000 1.00000000)
        (0.00000000 1.00000000)
        (0.00000000 1.00000000)
        (0.50000000 0.50000000)
        (1.00000000 0.00000000))
        ((0.00000000 1.00000000)
        (0.00000000 1.00000000)
        (0.00000000 1.00000000)
        (1.00000000 0.00000000)
        (1.00000000 0.00000000))
        ((0.00000000 1.00000000)
        (0.50000000 0.50000000)
        (1.00000000 0.00000000)
        (1.00000000 0.00000000)
        (1.00000000 0.00000000))
        ((0.00000000 1.00000000)
        (0.80000000 0.20000000)
        (1.00000000 0.00000000)
        (1.00000000 0.00000000)
        (1.00000000 0.00000000)))
        (((0.00000000 1.00000000)
        (0.00000000 1.00000000)
        (0.00000000 1.00000000)
        (0.20000000 0.80000000)
        (1.00000000 0.00000000))
        ((0.00000000 1.00000000)
        (0.00000000 1.00000000)
        (0.00000000 1.00000000)
        (0.50000000 0.50000000)
        (1.00000000 0.00000000))
        ((0.00000000 1.00000000)
        (0.00000000 1.00000000)
        (0.00000000 1.00000000)
        (1.00000000 0.00000000)
        (1.00000000 0.00000000))
        ((0.00000000 1.00000000)
        (0.50000000 0.50000000)
        (1.00000000 0.00000000)
        (1.00000000 0.00000000)
        (1.00000000 0.00000000))
        ((0.00000000 1.00000000)
        (0.80000000 0.20000000)
        (1.00000000 0.00000000)
        (1.00000000 0.00000000)
        (1.00000000 0.00000000)))
        (((0.00000000 1.00000000)
        (0.00000000 1.00000000)
        (0.00000000 1.00000000)
        (0.20000000 0.80000000)
        (1.00000000 0.00000000))
        ((0.00000000 1.00000000)
        (0.00000000 1.00000000)
        (0.00000000 1.00000000)
        (0.50000000 0.50000000)
        (1.00000000 0.00000000))
        ((0.00000000 1.00000000)
        (0.00000000 1.00000000)
        (0.00000000 1.00000000)
        (1.00000000 0.00000000)
        (1.00000000 0.00000000))
        ((0.00000000 1.00000000)
        (0.50000000 0.50000000)
        (1.00000000 0.00000000)
        (1.00000000 0.00000000)
        (1.00000000 0.00000000))
        ((0.00000000 1.00000000)
        (0.80000000 0.20000000)
        (1.00000000 0.00000000)
        (1.00000000 0.00000000)
        (1.00000000 0.00000000))));
}

potential (Virtual_Evidence_Pain | Pain_Pre Pain_Post Pain_Follow)
{
    data = ((((0.00000000 1.00000000)
        (0.00000000 1.00000000)
        (0.00000000 1.00000000)
        (0.20000000 0.80000000)
        (1.00000000 0.00000000))
        ((0.00000000 1.00000000)
        (0.00000000 1.00000000)
        (0.00000000 1.00000000)
        (0.50000000 0.50000000)
        (1.00000000 0.00000000))
        ((0.00000000 1.00000000)
        (0.00000000 1.00000000)
        (0.00000000 1.00000000)
        (1.00000000 0.00000000)
        (1.00000000 0.00000000))
        ((0.00000000 1.00000000)
        (0.50000000 0.50000000)
        (1.00000000 0.00000000)
        (1.00000000 0.00000000)
        (1.00000000 0.00000000))
        ((0.00000000 1.00000000)
        (0.80000000 0.20000000)
        (1.00000000 0.00000000)
        (1.00000000 0.00000000)
        (1.00000000 0.00000000)))
        (((0.00000000 1.00000000)
        (0.00000000 1.00000000)
        (0.00000000 1.00000000)
        (0.20000000 0.80000000)
        (1.00000000 0.00000000))
        ((0.00000000 1.00000000)
        (0.00000000 1.00000000)
        (0.00000000 1.00000000)
        (0.50000000 0.50000000)
        (1.00000000 0.00000000))
        ((0.00000000 1.00000000)
        (0.00000000 1.00000000)
        (0.00000000 1.00000000)
        (1.00000000 0.00000000)
        (1.00000000 0.00000000))
        ((0.00000000 1.00000000)
        (0.50000000 0.50000000)
        (1.00000000 0.00000000)
        (1.00000000 0.00000000)
        (1.00000000 0.00000000))
        ((0.00000000 1.00000000)
        (0.80000000 0.20000000)
        (1.00000000 0.00000000)
        (1.00000000 0.00000000)
        (1.00000000 0.00000000)))
        (((0.00000000 1.00000000)
        (0.00000000 1.00000000)
        (0.00000000 1.00000000)
        (0.20000000 0.80000000)
        (1.00000000 0.00000000))
        ((0.00000000 1.00000000)
        (0.00000000 1.00000000)
        (0.00000000 1.00000000)
        (0.50000000 0.50000000)
        (1.00000000 0.00000000))
        ((0.00000000 1.00000000)
        (0.00000000 1.00000000)
        (0.00000000 1.00000000)
        (1.00000000 0.00000000)
        (1.00000000 0.00000000))
        ((0.00000000 1.00000000)
        (0.50000000 0.50000000)
        (1.00000000 0.00000000)
        (1.00000000 0.00000000)
        (1.00000000 0.00000000))
        ((0.00000000 1.00000000)
        (0.80000000 0.20000000)
        (1.00000000 0.00000000)
        (1.00000000 0.00000000)
        (1.00000000 0.00000000)))
        (((0.00000000 1.00000000)
        (0.00000000 1.00000000)
        (0.00000000 1.00000000)
        (0.20000000 0.80000000)
        (1.00000000 0.00000000))
        ((0.00000000 1.00000000)
        (0.00000000 1.00000000)
        (0.00000000 1.00000000)
        (0.50000000 0.50000000)
        (1.00000000 0.00000000))
        ((0.00000000 1.00000000)
        (0.00000000 1.00000000)
        (0.00000000 1.00000000)
        (1.00000000 0.00000000)
        (1.00000000 0.00000000))
        ((0.00000000 1.00000000)
        (0.50000000 0.50000000)
        (1.00000000 0.00000000)
        (1.00000000 0.00000000)
        (1.00000000 0.00000000))
        ((0.00000000 1.00000000)
        (0.80000000 0.20000000)
        (1.00000000 0.00000000)
        (1.00000000 0.00000000)
        (1.00000000 0.00000000))));
}
