<?xml version='1.0' encoding='utf-8'?>
<BIF VERSION="0.3">
  <NETWORK>
    <NAME>UNTITLED</NAME>
    <VARIABLE TYPE="nature">
      <NAME>Adjuvant therapy</NAME>
      <OUTCOME>none</OUTCOME>
      <OUTCOME>chemo_hormone</OUTCOME>
      <OUTCOME>chemotherapy</OUTCOME>
      <OUTCOME>hormone_therapy</OUTCOME>
      <PROPERTY />
    </VARIABLE>
    <VARIABLE TYPE="nature">
      <NAME>Age</NAME>
      <OUTCOME>x_30</OUTCOME>
      <OUTCOME>x30_39</OUTCOME>
      <OUTCOME>x40_49</OUTCOME>
      <OUTCOME>x50_59</OUTCOME>
      <OUTCOME>x60_69</OUTCOME>
      <OUTCOME>x_69</OUTCOME>
      <PROPERTY />
    </VARIABLE>
    <VARIABLE TYPE="nature">
      <NAME>Body Image Follow</NAME>
      <OUTCOME>much_better</OUTCOME>
      <OUTCOME>better</OUTCOME>
      <OUTCOME>similar</OUTCOME>
      <OUTCOME>worse</OUTCOME>
      <OUTCOME>much_worse</OUTCOME>
      <PROPERTY />
    </VARIABLE>
    <VARIABLE TYPE="nature">
      <NAME>Body Image Post</NAME>
      <OUTCOME>much_better</OUTCOME>
      <OUTCOME>better</OUTCOME>
      <OUTCOME>similar</OUTCOME>
      <OUTCOME>worse</OUTCOME>
      <OUTCOME>much_worse</OUTCOME>
      <PROPERTY />
    </VARIABLE>
    <VARIABLE TYPE="nature">
      <NAME>Body Image Pre</NAME>
      <OUTCOME>positive</OUTCOME>
      <OUTCOME>neutral</OUTCOME>
      <OUTCOME>negative</OUTCOME>
      <PROPERTY />
    </VARIABLE>
    <VARIABLE TYPE="nature">
      <NAME>Fatigue Follow</NAME>
      <OUTCOME>much_better</OUTCOME>
      <OUTCOME>better</OUTCOME>
      <OUTCOME>similar</OUTCOME>
      <OUTCOME>worse</OUTCOME>
      <OUTCOME>much_worse</OUTCOME>
      <PROPERTY />
    </VARIABLE>
    <VARIABLE TYPE="nature">
      <NAME>Fatigue Post</NAME>
      <OUTCOME>much_better</OUTCOME>
      <OUTCOME>better</OUTCOME>
      <OUTCOME>similar</OUTCOME>
      <OUTCOME>worse</OUTCOME>
      <OUTCOME>much_worse</OUTCOME>
      <PROPERTY />
    </VARIABLE>
    <VARIABLE TYPE="nature">
      <NAME>Fatigue Pre</NAME>
      <OUTCOME>absent</OUTCOME>
      <OUTCOME>little</OUTCOME>
      <OUTCOME>moderate</OUTCOME>
      <OUTCOME>severe</OUTCOME>
      <PROPERTY />
    </VARIABLE>
    <VARIABLE TYPE="nature">
      <NAME>Lymph nodes</NAME>
      <OUTCOME>x0</OUTCOME>
      <OUTCOME>x1_to_3</OUTCOME>
      <OUTCOME>x4_to_9</OUTCOME>
      <OUTCOME>x10_or_more</OUTCOME>
      <PROPERTY />
    </VARIABLE>
    <VARIABLE TYPE="nature">
      <NAME>Metastasis</NAME>
      <OUTCOME>yes</OUTCOME>
      <OUTCOME>no</OUTCOME>
      <PROPERTY />
    </VARIABLE>
    <VARIABLE TYPE="nature">
      <NAME>Oestrogen</NAME>
      <OUTCOME>positive</OUTCOME>
      <OUTCOME>negative</OUTCOME>
      <PROPERTY />
    </VARIABLE>
    <VARIABLE TYPE="nature">
      <NAME>Pain Follow</NAME>
      <OUTCOME>much_better</OUTCOME>
      <OUTCOME>better</OUTCOME>
      <OUTCOME>similar</OUTCOME>
      <OUTCOME>worse</OUTCOME>
      <OUTCOME>much_worse</OUTCOME>
      <PROPERTY />
    </VARIABLE>
    <VARIABLE TYPE="nature">
      <NAME>Pain Post</NAME>
      <OUTCOME>much_better</OUTCOME>
      <OUTCOME>better</OUTCOME>
      <OUTCOME>similar</OUTCOME>
      <OUTCOME>worse</OUTCOME>
      <OUTCOME>much_worse</OUTCOME>
      <PROPERTY />
    </VARIABLE>
    <VARIABLE TYPE="nature">
      <NAME>Pain Pre</NAME>
      <OUTCOME>absent</OUTCOME>
      <OUTCOME>little</OUTCOME>
      <OUTCOME>moderate</OUTCOME>
      <OUTCOME>severe</OUTCOME>
      <PROPERTY />
    </VARIABLE>
    <VARIABLE TYPE="nature">
      <NAME>Surgery</NAME>
      <OUTCOME>mastectomy</OUTCOME>
      <OUTCOME>breast_conserving</OUTCOME>
      <PROPERTY />
    </VARIABLE>
    <VARIABLE TYPE="nature">
      <NAME>Survival &gt; 10y</NAME>
      <OUTCOME>yes</OUTCOME>
      <OUTCOME>no</OUTCOME>
      <PROPERTY />
    </VARIABLE>
    <VARIABLE TYPE="nature">
      <NAME>Tumour Size</NAME>
      <OUTCOME>x__2_cm</OUTCOME>
      <OUTCOME>x2_to_5_cm</OUTCOME>
      <OUTCOME>x__5_cm</OUTCOME>
      <PROPERTY />
    </VARIABLE>
    <VARIABLE TYPE="nature">
      <NAME>Tumour Stage</NAME>
      <OUTCOME>IA</OUTCOME>
      <OUTCOME>IB</OUTCOME>
      <OUTCOME>IIA</OUTCOME>
      <OUTCOME>IIB</OUTCOME>
      <OUTCOME>IIIA_B</OUTCOME>
      <OUTCOME>IIIC</OUTCOME>
      <OUTCOME>IV</OUTCOME>
      <PROPERTY />
    </VARIABLE>
    <VARIABLE TYPE="nature">
      <NAME>Virtual Evidence Body Image</NAME>
      <OUTCOME>decreased</OUTCOME>
      <OUTCOME>increased_or_similar</OUTCOME>
      <PROPERTY />
    </VARIABLE>
    <VARIABLE TYPE="nature">
      <NAME>Virtual Evidence Fatigue</NAME>
      <OUTCOME>increased</OUTCOME>
      <OUTCOME>decreased_or_similar</OUTCOME>
      <PROPERTY />
    </VARIABLE>
    <VARIABLE TYPE="nature">
      <NAME>Virtual Evidence Pain</NAME>
      <OUTCOME>increased</OUTCOME>
      <OUTCOME>decreased_or_similar</OUTCOME>
      <PROPERTY />
    </VARIABLE>
    <DEFINITION>
      <FOR>Adjuvant therapy</FOR>
      <GIVEN>Metastasis</GIVEN>
      <GIVEN>Age</GIVEN>
      <GIVEN>Oestrogen</GIVEN>
      <TABLE>9.999999999969996e-13 0.9999999999969997 9.999999999969996e-13 9.999999999969996e-13 9.999871553332975e-13 9.999871553332975e-13 0.999999999997 9.999871553332975e-13 9.999999999969996e-13 0.9999999999969997 9.999999999969996e-13 9.999999999969996e-13 9.999834646503335e-13 9.999834646503335e-13 0.999999999997 9.999834646503335e-13 9.999999999969996e-13 0.9999999999969997 9.999999999969996e-13 9.999999999969996e-13 9.9729472693808e-13 9.9729472693808e-13 0.9999999999970081 9.9729472693808e-13 9.999999999969996e-13 0.9999999999969997 9.999999999969996e-13 9.999999999969996e-13 3.337233208560484e-13 3.337233208560484e-13 0.9999999999989987 3.337233208560484e-13 9.999999999969996e-13 0.9999999999969997 9.999999999969996e-13 9.999999999969996e-13 9.992367887266762e-13 9.992367887266762e-13 0.9999999999970023 9.992367887266762e-13 9.999999999969998e-13 9.999999999969998e-13 0.999999999997 9.999999999969998e-13 9.999999999969998e-13 9.999999999969998e-13 9.999999999969998e-13 0.999999999997 9.999758590963555e-13 9.999758590963555e-13 9.999758590963555e-13 0.9999999999970001 0.9999999999969998 9.999472724972358e-13 9.999472724972358e-13 9.999472724972358e-13 9.999662924405825e-13 9.999662924405825e-13 9.999662924405825e-13 0.9999999999970001 0.999999999997 9.999227020920423e-13 9.999227020920423e-13 9.999227020920423e-13 9.943389707356384e-13 9.943389707356384e-13 9.943389707356384e-13 0.9999999999970169 0.6645413334578949 6.588509334430702e-13 0.3354586665407873 6.588509334430702e-13 5.023644917862519e-13 5.023644917862519e-13 5.023644917862519e-13 0.9999999999984929 0.3209192166800757 1.8265258327860467e-13 0.6790807833195589 1.8265258327860467e-13 9.97522543341542e-13 9.97522543341542e-13 9.97522543341542e-13 0.9999999999970074 0.9999999999970168 9.942950560783686e-13 9.942950560783686e-13 9.942950560783686e-13 9.988226555124135e-13 9.988226555124135e-13 9.988226555124135e-13 0.9999999999970035 0.5006111597157233 0.49938884028227937 9.985385051224055e-13 9.985385051224055e-13 </TABLE>
    </DEFINITION>
    <DEFINITION>
      <FOR>Age</FOR>
      <TABLE>0.0004544129538845998 0.0006808386869151995 0.07513331986416706 0.8513283789382367 0.04544278669054031 0.02696026286625624 </TABLE>
    </DEFINITION>
    <DEFINITION>
      <FOR>Body Image Follow</FOR>
      <GIVEN>Body Image Post</GIVEN>
      <GIVEN>Age</GIVEN>
      <GIVEN>Surgery</GIVEN>
      <TABLE>0.030000000000000027 0.16999999999999993 0.25 0.30000000000000004 0.25 0.050000000000000044 0.1499999999999999 0.30000000000000004 0.3500000000000001 0.1499999999999999 0.03750000000000009 0.19999999999999996 0.19999999999999996 0.3125 0.25 0.05000000000000003 0.1999999999999999 0.3 0.35000000000000003 0.10000000000000006 0.040000000000000036 0.08000000000000007 0.25 0.27 0.3599999999999999 0.04545455000000009 0.1999999999999999 0.3 0.27272727 0.18181818000000002 0.05000000000000003 0.10000000000000006 0.24999999999999994 0.33 0.26999999999999996 0.030000000000000027 0.19999999999999996 0.3999999999999999 0.26 0.1100000000000001 0.05000000000000003 0.10000000000000006 0.3 0.31 0.23999999999999994 0.050000000000000044 0.19999999999999996 0.41999999999999993 0.27 0.06000000000000005 0.05000000000000003 0.10000000000000006 0.35000000000000003 0.34 0.1599999999999999 0.050000000000000044 0.19999999999999996 0.48 0.26 0.010000000000000009 0.10000000000000009 0.1299999999999999 0.30000000000000004 0.32000000000000006 0.1499999999999999 0.10000000000000009 0.16999999999999993 0.5899999999999999 0.08000000000000007 0.06000000000000005 0.10000000000000009 0.16999999999999993 0.29000000000000004 0.29000000000000004 0.1499999999999999 0.10000000000000006 0.24999999999999994 0.4999999999999999 0.09000000000000007 0.06000000000000004 0.10000000000000009 0.18999999999999995 0.31000000000000005 0.2999999999999998 0.10000000000000009 0.10000000000000006 0.1999999999999999 0.5499999999999999 0.10000000000000006 0.05000000000000003 0.11000000000000007 0.21999999999999992 0.4 0.1799999999999999 0.09000000000000007 0.07000000000000006 0.1499999999999999 0.6699999999999999 0.07000000000000006 0.040000000000000036 0.1499999999999999 0.22999999999999998 0.45999999999999996 0.10000000000000009 0.06000000000000005 0.10000000000000009 0.16999999999999993 0.6499999999999999 0.050000000000000044 0.030000000000000027 0.19999999999999996 0.3599999999999999 0.30000000000000004 0.10000000000000009 0.040000000000000036 0.10000000000000006 0.23999999999999994 0.6 0.04000000000000003 0.020000000000000014 0.04999556812706795 0.189983158882858 0.40005318247518507 0.29997340876240747 0.059994681752481537 0.11999987144698245 0.31999965719195295 0.30000074989260284 0.19999978574497052 0.05999993572349122 0.10998611902640956 0.1699785475862691 0.4000757144014028 0.2699659285193687 0.0499936904665498 0.13999981217652782 0.2899996109370931 0.30000093911736136 0.2199997048488292 0.049999932920188506 0.13647446696391635 0.18521534802245773 0.38015421403545185 0.24967532529066608 0.048480645687508005 0.15392449527857102 0.2987946084819323 0.27185116164023637 0.248338285294415 0.02709144930484531 0.025351214654944533 0.038871862470914946 0.8971693933850104 0.03582500484126488 0.0027825246478652347 0.1841489834617359 0.2117713309809963 0.33100558532949514 0.25712816736775673 0.015945932860015936 0.16850416070219368 0.24780023632675577 0.3160713477381567 0.24780023632675355 0.0198240189061403 0.1999784192118099 0.25997194497535286 0.3000755327586664 0.21997626113298993 0.019997841921180922 0.19948528459643128 0.2393823415157176 0.29182723968267005 0.24935660574553803 0.01994852845964306 0.21998632810893917 0.269983220860971 0.30004350147155745 0.1999875710081261 0.009999378550406316 0.05000000000000003 0.23999999999999994 0.3 0.35000000000000003 0.06000000000000004 0.12000000000000008 0.37000000000000005 0.1999999999999999 0.24999999999999994 0.06000000000000004 0.11000000000000007 0.21999999999999992 0.3 0.32 0.05000000000000003 0.1400000000000001 0.34 0.1999999999999999 0.26999999999999996 0.05000000000000003 0.12253829278761219 0.2911378563111146 0.27997811893224295 0.2625820559734545 0.04376367599557578 0.1365461838615506 0.4528112452831406 0.20983935929420489 0.17670682617377143 0.02409638538733249 0.0837446837243201 0.24795644920341026 0.30837641620795037 0.3393554536720725 0.020566997192246833 0.16275491615596066 0.3762802812454991 0.2408755069281497 0.20378638487999123 0.016302910790399312 0.16999999999999993 0.30000000000000004 0.20999999999999996 0.30000000000000004 0.020000000000000018 0.19999999999999996 0.31000000000000005 0.19999999999999996 0.27 0.020000000000000018 0.19999999999999996 0.29000000000000004 0.18999999999999995 0.30000000000000004 0.020000000000000018 0.21999999999999997 0.32000000000000006 0.19999999999999996 0.25 0.010000000000000009 0.05000000000000003 0.1999999999999999 0.35000000000000003 0.37000000000000005 0.03000000000000002 0.12000000000000008 0.37000000000000005 0.24999999999999994 0.22999999999999993 0.03000000000000002 0.11000000000000007 0.21999999999999992 0.35000000000000003 0.29 0.03000000000000002 0.1400000000000001 0.34 0.24999999999999994 0.23999999999999994 0.03000000000000002 0.1400000000000001 0.23999999999999994 0.32 0.26999999999999996 0.03000000000000002 0.16999999999999996 0.38 0.25000000000000006 0.19 0.01000000000000001 0.1499999999999999 0.28 0.30000000000000004 0.26 0.010000000000000009 0.19999999999999996 0.28 0.30000000000000004 0.21300000000000008 0.006999999999999895 0.16999999999999993 0.30000000000000004 0.26 0.26 0.010000000000000009 0.19999999999999996 0.31000000000000005 0.25 0.22999999999999998 0.010000000000000009 0.19999999999999996 0.29000000000000004 0.24 0.2570000000000001 0.0129999999999999 0.21999999999999997 0.32000000000000006 0.25 0.20599999999999996 0.0040000000000000036 </TABLE>
    </DEFINITION>
    <DEFINITION>
      <FOR>Body Image Post</FOR>
      <GIVEN>Body Image Pre</GIVEN>
      <GIVEN>Age</GIVEN>
      <GIVEN>Surgery</GIVEN>
      <TABLE>9.99999999998e-13 9.99999999998e-13 0.2499999999995 0.2499999999995 0.499999999999 9.99999999998e-13 9.99999999998e-13 0.44999999999909995 0.3499999999993001 0.19999999999959997 9.99999999998e-13 9.99999999998e-13 0.2999999999994001 0.2499999999995 0.44999999999909995 9.99999999998e-13 9.99999999998e-13 0.499999999999 0.3499999999993001 0.14999999999969993 9.99999999998e-13 9.99999999998e-13 0.3199999999993601 0.26999999999946 0.40999999999917996 9.99999999998e-13 9.99999999998e-13 0.499999999999 0.2727272699994546 0.2272727299995454 9.999999999979999e-13 9.999999999979999e-13 0.34999999999930004 0.32999999999934 0.31999999999936 9.99999999998e-13 9.99999999998e-13 0.5799999999988401 0.25999999999948004 0.15999999999967993 9.99999999998e-13 9.99999999998e-13 0.39999999999919994 0.30999999999938005 0.28999999999942006 9.999999999979999e-13 9.999999999979999e-13 0.61999999999876 0.26999999999945995 0.10999999999978008 9.99999999998e-13 9.99999999998e-13 0.44999999999909995 0.33999999999932007 0.20999999999957997 9.999999999979999e-13 9.999999999979999e-13 0.67999999999864 0.25999999999948 0.059999999999880045 0.10999024987954946 0.11998936350496305 0.25006647809398136 0.25997695426075307 0.25997695426075307 0.1399998500214795 0.1399998500214795 0.5400004927865674 0.08999990358523681 0.08999990358523681 0.12998359521302927 0.13998233330633944 0.2400959049084437 0.24996845233274878 0.23996971423943883 0.16999977192864074 0.17999975851267844 0.45000073787792677 0.09999986584037704 0.09999986584037704 0.11926674092636118 0.1277857938496725 0.24819357611013856 0.3173347248009747 0.18741916431285308 0.11091717229560519 0.11091717229560519 0.4491113716829113 0.25510950219547474 0.07394478153040357 0.02005295087513282 0.02130626030482862 0.8193782493432014 0.11920958860170441 0.02005295087513282 0.07416997828905933 0.07416997828905933 0.5894748820211391 0.20824335900869914 0.053941802392043145 0.18832817960833265 0.18832817960833265 0.4151914422688615 0.10903210398377167 0.09912009453070152 0.10998813056649508 0.10998813056649508 0.6500377663793339 0.06999244672413323 0.05999352576354277 0.1994852845964304 0.1994852845964304 0.41151841044053017 0.0997426422982153 0.08976837806839377 0.09999378550406314 0.09999378550406314 0.6900192649374043 0.059996271302437884 0.04999689275203157 0.030000000000000034 0.16999999999999996 0.4 0.2 0.2 0.10000000000000009 0.30000000000000004 0.30000000000000004 0.1499999999999999 0.1499999999999999 0.0900000000000001 0.14999999999999994 0.38 0.19 0.19 0.1200000000000001 0.27 0.31000000000000005 0.1499999999999999 0.1499999999999999 0.12000000000000013 0.16999999999999996 0.35999999999999993 0.17999999999999997 0.16999999999999996 0.1499999999999999 0.31000000000000005 0.27 0.14000000000000012 0.1299999999999999 0.12999999999999992 0.21000000000000002 0.3300000000000001 0.16999999999999996 0.15999999999999995 0.17999999999999997 0.21000000000000002 0.3100000000000001 0.14999999999999994 0.14999999999999994 0.14999999999999994 0.23000000000000004 0.3100000000000001 0.15999999999999995 0.14999999999999994 0.17999999999999994 0.24 0.29000000000000004 0.1499999999999999 0.14000000000000012 0.17999999999999997 0.22000000000000003 0.3000000000000001 0.14999999999999994 0.14999999999999994 0.19999999999999996 0.25 0.28 0.14000000000000012 0.1299999999999999 </TABLE>
    </DEFINITION>
    <DEFINITION>
      <FOR>Body Image Pre</FOR>
      <GIVEN>Age</GIVEN>
      <TABLE>0.49995514572805644 0.30006279598072105 0.19998205829122254 0.5499298574403352 0.30008927234866445 0.1499808702110004 0.3931333030952705 0.4758222625396394 0.1310444343650901 0.07090559686637317 0.9113680039170335 0.01772639921659328 0.6442117056807086 0.2566788011376438 0.09910949318164758 0.698155218229678 0.25197655189677354 0.04986822987354848 </TABLE>
    </DEFINITION>
    <DEFINITION>
      <FOR>Fatigue Follow</FOR>
      <GIVEN>Fatigue Post</GIVEN>
      <GIVEN>Adjuvant therapy</GIVEN>
      <GIVEN>Surgery</GIVEN>
      <TABLE>0.10000000000000009 0.1299999999999999 0.19999999999999996 0.32000000000000006 0.25 0.07000000000000006 0.1499999999999999 0.25 0.33000000000000007 0.19999999999999996 0.05000000000000003 0.10000000000000006 0.05000000000000003 0.3 0.4999999999999999 0.05000000000000003 0.10000000000000006 0.10000000000000006 0.3 0.44999999999999984 0.04545454540752349 0.0485893454042806 0.4043887147227327 0.18808777065182147 0.31347962381364175 0.05000000000000003 0.10000000000000006 0.10000000000000006 0.3 0.44999999999999984 0.050000000000000044 0.17999999999999994 0.19999999999999996 0.32000000000000006 0.25 0.10000000000000006 0.12000000000000008 0.24999999999999994 0.33 0.1999999999999999 0.05000000000000003 0.10000000000000006 0.21999999999999992 0.33 0.3 0.08000000000000006 0.12000000000000008 0.21999999999999992 0.33 0.24999999999999994 0.014999999999999902 0.03499999999999992 0.10000000000000009 0.30000000000000004 0.55 0.014999999999999906 0.03499999999999993 0.2 0.25000000000000006 0.5000000000000001 0.010526315789473616 0.09912280701754378 0.29385964912280704 0.21052631578947373 0.38596491228070184 0.014999999999999906 0.03499999999999993 0.2 0.25000000000000006 0.5000000000000001 0.05000000000000003 0.10000000000000006 0.21999999999999992 0.33 0.3 0.07000000000000006 0.1299999999999999 0.21999999999999997 0.33000000000000007 0.25 0.15766869018893928 0.23124741227711101 0.34687111841566654 0.17614185274552208 0.08807092637276114 0.10000000000000009 0.27 0.3799999999999999 0.17999999999999994 0.07000000000000006 0.020001129308403164 0.08000451723361265 0.30001693962604675 0.39998494255462497 0.19999247127731248 0.050000000000000044 0.1499999999999999 0.30000000000000004 0.30000000000000004 0.19999999999999996 0.00943683127301618 0.10494900233930123 0.7540527335697594 0.0877076218786153 0.04385381093930765 0.049805419984954594 0.1494162599548638 0.3027241202106361 0.29883251990972737 0.19922167993981815 0.09764683983727755 0.14321536509467372 0.2998887521081444 0.3488253953070121 0.11042364765289214 0.010946843016041275 0.2955647913179966 0.41829763350425314 0.17520295083350212 0.09998778132820686 0.4198191389760413 0.30535364843900387 0.21375449867718707 0.04275089973543744 0.018321814172330333 0.26999999999999996 0.33 0.24999999999999994 0.10000000000000006 0.05000000000000003 0.09002340492195597 0.30002668277612804 0.5999507334117208 0.006999425223136637 0.002999753667058495 0.12000000000000008 0.35000000000000003 0.4999999999999999 0.020000000000000014 0.010000000000000007 0.31021904575542925 0.3226722596259785 0.3614324875120042 0.003973344974611686 0.0017028621319764006 0.2333477845774653 0.39921261959078025 0.34953754493585754 0.011934700597264628 0.005967350298632314 0.1585947475466806 0.3327003953173485 0.4077962569980054 0.07928204365432868 0.021626556483636716 0.31307169005909113 0.38412254451902944 0.2911893087296265 0.005007162477178129 0.006609294215074779 0.21999999999999992 0.33 0.35000000000000003 0.07000000000000005 0.03000000000000002 0.26999999999999996 0.33 0.24999999999999994 0.10000000000000006 0.05000000000000003 0.09000000000000008 0.30000000000000004 0.6000000000000001 0.006999999999999895 0.0029999999999998916 0.12000000000000008 0.35000000000000003 0.4999999999999999 0.020000000000000014 0.010000000000000007 0.37835054876112095 0.2285327131978754 0.38667220135180697 0.004511175682437679 0.0019333610067589647 0.22545433247378485 0.31299303527026395 0.4354270115622181 0.01741708046248874 0.00870854023124437 0.23157721188622418 0.341004324500256 0.3338771467994871 0.06547892176982292 0.028062395044209827 0.3140871847227577 0.38380548394254843 0.29049050013735794 0.004995236116093019 0.006621595081242917 </TABLE>
    </DEFINITION>
    <DEFINITION>
      <FOR>Fatigue Post</FOR>
      <GIVEN>Fatigue Pre</GIVEN>
      <GIVEN>Adjuvant therapy</GIVEN>
      <GIVEN>Surgery</GIVEN>
      <TABLE>0.02820332004405573 0.08460996013216707 0.2174185401554033 0.5287515794480954 0.14101660022027854 0.25000000000000006 0.2 0.2 0.2 0.14999999999999994 0.04999401257938181 0.09998802515876362 0.15001967826074494 0.200058158207292 0.49994012579381764 0.10000000000000009 0.10000000000000009 0.19999999999999996 0.19999999999999996 0.3999999999999999 0.009260890553139828 0.018521781106279656 0.6131833938810803 0.1642400056284468 0.19479392883105337 0.0547048785537816 0.0547048785537816 0.11154696950237256 0.4790974763182567 0.2999457970718075 0.04999999999999756 0.14999999999999244 0.25000000000000466 0.30000000000001775 0.24999999999998757 0.25000000000000006 0.2 0.2 0.2 0.14999999999999994 0.10000000000000006 0.20000000000000012 0.24999999999999994 0.1999999999999999 0.24999999999999994 0.050000000000000044 0.1499999999999999 0.19999999999999996 0.30000000000000004 0.30000000000000004 0.020000000000000014 0.03000000000000002 0.10000000000000006 0.3 0.5499999999999999 0.020000000000000018 0.030000000000000027 0.19999999999999996 0.25 0.5 0.020000000000000014 0.03000000000000002 0.10000000000000006 0.3 0.5499999999999999 0.020000000000000018 0.030000000000000027 0.19999999999999996 0.25 0.5 0.029480736999333932 0.058961473998667864 0.32357918802647667 0.3409027171683739 0.24707588380714762 0.07968307875157493 0.11952461812736241 0.2004052764588926 0.3006255739527704 0.29976145270939963 0.1499999999999999 0.20000000000000018 0.30000000000000004 0.19999999999999996 0.1499999999999999 0.10000000000000006 0.24999999999999994 0.35000000000000003 0.1999999999999999 0.10000000000000006 0.020000000000000014 0.08000000000000006 0.3 0.35000000000000003 0.24999999999999994 0.050000000000000044 0.1499999999999999 0.30000000000000004 0.30000000000000004 0.19999999999999996 0.01142857142857144 0.2171428571428571 0.3857142857142857 0.2428571428571429 0.14285714285714288 0.05000000000000003 0.14999999999999988 0.3000000000000002 0.3 0.1999999999999999 0.12532246150406973 0.16709661533875989 0.38223477861019967 0.20002368304290097 0.12532246150406973 0.09969218391165638 0.24923045977914074 0.35141343166855216 0.19997174072899435 0.09969218391165638 0.10000000000000009 0.30000000000000004 0.3999999999999999 0.1499999999999999 0.050000000000000044 0.3999999999999999 0.30000000000000004 0.1499999999999999 0.10000000000000009 0.050000000000000044 0.10000000000000006 0.3 0.3 0.1999999999999999 0.10000000000000006 0.1499999999999999 0.3500000000000001 0.25 0.1499999999999999 0.10000000000000009 0.16000000000000011 0.33999999999999997 0.2599999999999999 0.15999999999999995 0.08000000000000006 0.1499999999999999 0.3500000000000001 0.25 0.1499999999999999 0.10000000000000009 0.2728655243489027 0.2728655243489027 0.20905941843510406 0.17244539304071646 0.0727641398263741 0.3997771912387156 0.2998328934290368 0.1500675178159611 0.10035024861144706 0.0499721489048395 </TABLE>
    </DEFINITION>
    <DEFINITION>
      <FOR>Fatigue Pre</FOR>
      <GIVEN>Metastasis</GIVEN>
      <GIVEN>Tumour Stage</GIVEN>
      <TABLE>0.4999999999999999 0.20000000000000012 0.1799999999999999 0.12000000000000008 0.45000000000000007 0.2 0.2 0.14999999999999994 0.4 0.14999999999999994 0.25000000000000006 0.2 0.3500000000000001 0.19999999999999996 0.19999999999999996 0.25 0.30000000000000004 0.1499999999999999 0.30000000000000004 0.25 0.19999999999999996 0.25 0.30000000000000004 0.25 0.3666666666666667 0.10000000000000002 0.31666666666666665 0.21666666666666665 0.6452718438389592 0.1775467221024018 0.13304167387895421 0.04413976017968486 0.6000000000000808 0.19999999999996237 0.09999999999998041 0.09999999999997641 0.7273539824060127 0.10427083255901749 0.10126360169846858 0.06711158333650122 0.6841499781792189 0.10367781654678809 0.12191498908426779 0.0902572161897253 0.7575270198216076 0.1410489161583824 0.07341196135012425 0.02801210266988586 0.4159261597518622 0.23384085516407474 0.17683862411084905 0.173394360973214 0.30000000000000004 0.19999999999999996 0.25 0.25 </TABLE>
    </DEFINITION>
    <DEFINITION>
      <FOR>Lymph nodes</FOR>
      <TABLE>0.17965571694186813 0.30995409296151555 0.3322784641958036 0.17811172590081265 </TABLE>
    </DEFINITION>
    <DEFINITION>
      <FOR>Metastasis</FOR>
      <TABLE>0.2588888884286418 0.7411111115713582 </TABLE>
    </DEFINITION>
    <DEFINITION>
      <FOR>Oestrogen</FOR>
      <TABLE>0.19999999964444432 0.8000000003555556 </TABLE>
    </DEFINITION>
    <DEFINITION>
      <FOR>Pain Follow</FOR>
      <GIVEN>Pain Post</GIVEN>
      <GIVEN>Adjuvant therapy</GIVEN>
      <GIVEN>Surgery</GIVEN>
      <GIVEN>Metastasis</GIVEN>
      <TABLE>0.03000000000000002 0.10000000000000006 0.27999999999999997 0.23999999999999994 0.35000000000000003 0.030000000000000027 0.10000000000000009 0.3799999999999999 0.29000000000000004 0.19999999999999996 0.03131313004111824 0.10000000013131305 0.3333333337710438 0.28282828319967357 0.25252525285685135 0.030000000000000027 0.19999999999999996 0.42999999999999994 0.24 0.10000000000000009 0.020000000000000018 0.08000000000000007 0.20999999999999996 0.29000000000000004 0.3999999999999999 0.014999999999999902 0.06499999999999995 0.33000000000000007 0.3400000000000001 0.25 0.03000000000000002 0.10000000000000006 0.27999999999999997 0.29 0.3 0.030000000000000027 0.10000000000000009 0.42999999999999994 0.29000000000000004 0.1499999999999999 0.020000000000000018 0.08000000000000007 0.20999999999999996 0.29000000000000004 0.3999999999999999 0.014999999999999902 0.06499999999999995 0.33000000000000007 0.3400000000000001 0.25 0.013043480000000104 0.10000000000000006 0.37391303999999986 0.25217390999999995 0.26086957000000005 0.030000000000000027 0.10000000000000009 0.42999999999999994 0.29000000000000004 0.1499999999999999 0.03000000000000002 0.10000000000000006 0.27999999999999997 0.23999999999999994 0.35000000000000003 0.030000000000000027 0.10000000000000009 0.3799999999999999 0.29000000000000004 0.19999999999999996 0.03131313004111824 0.10000000013131305 0.3333333337710438 0.28282828319967357 0.25252525285685135 0.030000000000000027 0.19999999999999996 0.42999999999999994 0.24 0.10000000000000009 0.014999999999999906 0.06499999999999996 0.23000000000000004 0.2900000000000001 0.4 0.014999999999999906 0.06499999999999996 0.38 0.2900000000000001 0.25000000000000006 0.020000000000000014 0.08000000000000006 0.31 0.29 0.3 0.030000000000000034 0.14999999999999994 0.43000000000000005 0.24000000000000005 0.14999999999999994 0.014999999999999906 0.06499999999999996 0.23000000000000004 0.2900000000000001 0.4 0.020000000000000014 0.07000000000000005 0.33 0.33 0.24999999999999994 0.015808080996966067 0.06499999998752526 0.28282828277400274 0.3030303029721457 0.3333333332693602 0.027843139969973008 0.07999999991372553 0.4215686253296811 0.3039215666330257 0.16666666815359465 0.014999999999999906 0.06499999999999996 0.23000000000000004 0.2900000000000001 0.4 0.020000000000000014 0.07000000000000005 0.33 0.33 0.24999999999999994 0.19999999999999996 0.3235602099999999 0.14659686000000005 0.15706806000000006 0.17277487000000002 0.029999999967647017 0.07784313991605152 0.4215686253296811 0.3039215666330257 0.16666666815359465 0.014999999999999906 0.06499999999999996 0.23000000000000004 0.2900000000000001 0.4 0.014999999999999906 0.06499999999999996 0.38 0.2900000000000001 0.25000000000000006 0.020000000000000014 0.08000000000000006 0.31 0.29 0.3 0.05000000000000006 0.12999999999999992 0.43000000000000005 0.24000000000000005 0.14999999999999994 0.043956040637604055 0.13186813191281255 0.37362637541963517 0.30054945135412403 0.1500000006758242 0.040000000000000036 0.3599999999999999 0.33000000000000007 0.16999999999999993 0.10000000000000009 0.06000000000000005 0.27 0.3400000000000001 0.19999999999999996 0.1299999999999999 0.12000000000000008 0.4199999999999998 0.29 0.12000000000000008 0.05000000000000003 0.040000000000000056 0.21000000000000005 0.34 0.29999999999999993 0.10999999999999993 0.050000000000000044 0.30000000000000004 0.3799999999999999 0.16999999999999993 0.10000000000000009 0.050000000000000044 0.31000000000000005 0.3799999999999999 0.15999999999999992 0.10000000000000009 0.07000000000000006 0.3900000000000001 0.3599999999999999 0.1299999999999999 0.050000000000000044 0.013333333333333346 0.06999999999999999 0.78 0.08666666666666668 0.049999999999999975 0.015453638444827602 0.09272183066896546 0.8271075159859046 0.04074775012241258 0.023969264777889784 0.050000000000000024 0.30999999999999994 0.38000000000000017 0.15999999999999984 0.10000000000000005 0.04141144593125483 0.2307209130455622 0.6293988596263762 0.07111634211991598 0.027352439276890808 0.040000000000000036 0.19999999999999996 0.3500000000000001 0.26 0.1499999999999999 0.02007651429821097 0.1806886286838985 0.6637183855049666 0.0853251857673965 0.05019128574552742 0.06000000000000005 0.27 0.3400000000000001 0.19999999999999996 0.1299999999999999 0.11909224683591352 0.4168228639256969 0.2953708728875121 0.11909224683591352 0.04962176951496396 0.17999999999999994 0.33000000000000007 0.3999999999999999 0.06000000000000005 0.030000000000000027 0.5051962316807881 0.30747558891781523 0.1170801121258729 0.04683204485034921 0.023416022425174605 0.2828282837424753 0.3434343445444343 0.2232323207215589 0.10000000032323239 0.05050505066829912 0.39999999999999997 0.3399999999999999 0.10000000000000005 0.060000000000000026 0.10000000000000005 0.16999999999999993 0.33000000000000007 0.3999999999999999 0.07000000000000006 0.030000000000000027 0.2800274892637179 0.3800021096179306 0.19998258889314788 0.09999129444657405 0.03999651777862962 0.27999999999999997 0.39 0.1999999999999999 0.09000000000000007 0.04000000000000003 0.3999999999999998 0.34 0.11000000000000007 0.10000000000000006 0.05000000000000003 0.1699999999999999 0.33 0.37000000000000005 0.10000000000000006 0.03000000000000002 0.33832042217393304 0.37636829704540753 0.1846131816816031 0.06713206606603755 0.03356603303301878 0.27999999999999997 0.39 0.2099999999999999 0.08000000000000006 0.04000000000000003 0.3999999999999998 0.34 0.11000000000000007 0.10000000000000006 0.05000000000000003 0.18999999999999995 0.32000000000000006 0.3999999999999999 0.06000000000000005 0.030000000000000027 0.3300000000000125 0.35 0.19999999999999213 0.07999999999999695 0.039999999999998474 0.27999999999999997 0.34 0.22999999999999993 0.10000000000000006 0.05000000000000003 0.39999999999999997 0.3399999999999999 0.10000000000000005 0.060000000000000026 0.10000000000000005 0.17999999999999994 0.33000000000000007 0.3999999999999999 0.06000000000000005 0.030000000000000027 0.3512259864821003 0.3481941408654052 0.18786242040780898 0.07514496816312369 0.037572484081561844 0.2828282837424753 0.3434343445444343 0.2232323207215589 0.10000000032323239 0.05050505066829912 0.39999999999999997 0.3399999999999999 0.10000000000000005 0.060000000000000026 0.10000000000000005 0.16999999999999993 0.33000000000000007 0.3999999999999999 0.07000000000000006 0.030000000000000027 0.28001656278071296 0.3799945547334089 0.1999934602858106 0.09999673014290542 0.039998692057162166 0.27999999999999997 0.39 0.1999999999999999 0.09000000000000007 0.04000000000000003 0.3999999999999998 0.34 0.11000000000000007 0.10000000000000006 0.05000000000000003 0.1699999999999999 0.33 0.37000000000000005 0.10000000000000006 0.03000000000000002 0.2977333677658028 0.37387793939775693 0.21248680124710834 0.07726792772622129 0.038633963863110646 0.27999999999999997 0.39 0.2099999999999999 0.08000000000000006 0.04000000000000003 0.3999999999999998 0.34 0.11000000000000007 0.10000000000000006 0.05000000000000003 0.18999999999999995 0.32000000000000006 0.3999999999999999 0.06000000000000005 0.030000000000000027 0.33000000000000546 0.34999999999999815 0.19999999999999768 0.07999999999999917 0.039999999999999584 0.27999999999999997 0.34 0.22999999999999993 0.10000000000000006 0.05000000000000003 0.39999999999999997 0.3399999999999999 0.10000000000000005 0.060000000000000026 0.10000000000000005 </TABLE>
    </DEFINITION>
    <DEFINITION>
      <FOR>Pain Post</FOR>
      <GIVEN>Pain Pre</GIVEN>
      <GIVEN>Adjuvant therapy</GIVEN>
      <GIVEN>Surgery</GIVEN>
      <GIVEN>Metastasis</GIVEN>
      <TABLE>9.99999999998e-13 9.99999999998e-13 0.0999999999998001 0.2499999999995 0.6499999999987 5.640664008804776e-13 5.640664008804776e-13 0.05640664008804781 0.5969131439758938 0.3466802159349303 9.999999999979999e-13 9.999999999979999e-13 0.09999999999980007 0.29999999999939997 0.5999999999987999 9.999999999980003e-13 9.999999999980003e-13 0.1999999999996 0.3999999999992 0.3999999999992 9.99999999998e-13 9.99999999998e-13 0.06999999999986006 0.17999999999963995 0.7499999999985001 9.998802515856355e-13 9.998802515856355e-13 0.04999401257928182 0.30005112816360724 0.6499548592551112 9.99999999998e-13 9.99999999998e-13 0.0999999999998001 0.2499999999995 0.6499999999987 9.99999999998e-13 9.99999999998e-13 0.0999999999998001 0.39999999999919994 0.499999999999 3.333333333331112e-13 3.333333333331112e-13 0.68999999999954 0.059999999999959995 0.24999999999983338 2.273218702832828e-13 2.273218702832828e-13 0.7324332221832974 0.11176981869443497 0.15579695912181282 9.999999999979995e-13 9.999999999979995e-13 0.0999999999998005 0.2499999999994999 0.6499999999986996 5.470487855372172e-13 5.470487855372172e-13 0.5076560930154105 0.21881951421488682 0.27352439276860857 9.99999999998e-13 9.99999999998e-13 0.0999999999998001 0.2499999999995 0.6499999999987 5.019128574547572e-13 5.019128574547572e-13 0.5482784282896896 0.17566950010918458 0.27605207160012196 9.999999999979999e-13 9.999999999979999e-13 0.09999999999980007 0.29999999999939997 0.5999999999987999 9.92435390297309e-13 9.92435390297309e-13 0.20605168776016808 0.39697415611892356 0.39697415611892356 9.99999999999e-13 0.04999999999995004 0.19999999999979995 0.2999999999997 0.4499999999995499 9.99999999999e-13 0.04999999999995004 0.34999999999965004 0.2999999999997 0.2999999999997 9.99999999999e-13 0.06999999999993006 0.27999999999972003 0.2999999999997 0.34999999999965004 9.999999999990003e-13 0.14999999999984998 0.39999999999960006 0.2499999999997501 0.19999999999980003 9.99999999999e-13 0.04999999999995004 0.19999999999979995 0.2999999999997 0.4499999999995499 9.99999999999e-13 0.059999999999940046 0.2999999999997 0.3399999999996601 0.2999999999997 9.99999999999e-13 0.059999999999940046 0.24999999999974998 0.30999999999969 0.37999999999961986 9.999999999990003e-13 0.0784313707842352 0.39215686392117666 0.3137254931369412 0.21568627215664704 9.99999999999e-13 0.04999999999995004 0.19999999999979995 0.2999999999997 0.4499999999995499 9.999999999990003e-13 0.05882352999994116 0.294117649999706 0.33333332999966664 0.3137254899996863 9.99999999999e-13 0.059999999999940046 0.2999999999997 0.3399999999996601 0.2999999999997 9.999999999990003e-13 0.0784313707842352 0.39215686392117666 0.3137254931369412 0.21568627215664704 9.99999999999e-13 0.04999999999995004 0.19999999999979995 0.2999999999997 0.4499999999995499 9.99999999999e-13 0.04999999999995004 0.34999999999965004 0.2999999999997 0.2999999999997 9.99999999999e-13 0.06999999999993006 0.27999999999972003 0.2999999999997 0.34999999999965004 0.14999999999984992 0.39999999999959995 0.24999999999975003 0.19999999999979998 9.999999999990001e-13 0.040000000000000036 0.17999999999999994 0.32000000000000006 0.26 0.19999999999999996 0.04000000000000003 0.34 0.3 0.1999999999999999 0.12000000000000008 0.06000000000000005 0.25 0.31000000000000005 0.22999999999999998 0.1499999999999999 0.12000000000000008 0.3999999999999998 0.25999999999999995 0.1400000000000001 0.08000000000000006 0.040000000000000036 0.18999999999999995 0.31000000000000005 0.26 0.19999999999999996 0.05000000000000003 0.27999999999999997 0.35000000000000003 0.1999999999999999 0.12000000000000008 0.05000000000000003 0.29 0.35000000000000003 0.2099999999999999 0.10000000000000006 0.07000000000000005 0.37000000000000005 0.33 0.12999999999999987 0.10000000000000006 0.040000000000000036 0.18999999999999995 0.31000000000000005 0.26 0.19999999999999996 0.04999999999995003 0.2799999999997199 0.34999999999965 0.31999999999968 9.999999999989997e-13 0.05000000000000003 0.29 0.35000000000000003 0.1999999999999999 0.11000000000000007 0.07000000000000005 0.37000000000000005 0.33 0.12999999999999987 0.10000000000000006 0.040000000000000036 0.17999999999999994 0.32000000000000006 0.26 0.19999999999999996 0.04000000000000003 0.34 0.3 0.1999999999999999 0.12000000000000008 0.06000000000000005 0.25 0.31000000000000005 0.22999999999999998 0.1499999999999999 0.12000000000000008 0.3999999999999998 0.25999999999999995 0.1400000000000001 0.08000000000000006 0.030000000000000027 0.47 0.25 0.1499999999999999 0.10000000000000009 0.04000000000000003 0.64 0.1599999999999999 0.10000000000000006 0.06000000000000004 0.05000000000000003 0.58 0.1899999999999999 0.11000000000000007 0.07000000000000005 0.10000000000000006 0.6999999999999998 0.10000000000000006 0.06000000000000004 0.04000000000000003 0.030000000000000027 0.45999999999999996 0.26 0.1499999999999999 0.10000000000000009 0.04000000000000003 0.62 0.1699999999999999 0.10000000000000006 0.07000000000000005 0.040000000000000036 0.6299999999999999 0.16999999999999993 0.10000000000000009 0.06000000000000005 0.050000000000000044 0.7 0.1299999999999999 0.07000000000000006 0.050000000000000044 0.030000000000000027 0.45999999999999996 0.26 0.1499999999999999 0.10000000000000009 0.04000000000000003 0.62 0.1699999999999999 0.10000000000000006 0.07000000000000005 0.040000000000000036 0.6299999999999999 0.16999999999999993 0.10000000000000009 0.06000000000000005 0.050000000000000044 0.7 0.1299999999999999 0.07000000000000006 0.050000000000000044 0.030000000000000027 0.47 0.25 0.1499999999999999 0.10000000000000009 0.04000000000000003 0.64 0.1599999999999999 0.10000000000000006 0.06000000000000004 0.05000000000000003 0.58 0.1899999999999999 0.11000000000000007 0.07000000000000005 0.10000000000000006 0.6999999999999998 0.10000000000000006 0.06000000000000004 0.04000000000000003 </TABLE>
    </DEFINITION>
    <DEFINITION>
      <FOR>Pain Pre</FOR>
      <GIVEN>Tumour Stage</GIVEN>
      <GIVEN>Metastasis</GIVEN>
      <TABLE>0.4 0.4 0.17999999999999997 0.02000000000000002 0.5155329679273926 0.29068021924356446 0.14534010962178212 0.048446703207260786 0.3500000000000001 0.3999999999999999 0.19999999999999996 0.050000000000000044 0.450000000000141 0.3999999999998973 0.09999999999997444 0.04999999999998722 0.30000000000000004 0.44999999999999996 0.19999999999999996 0.050000000000000044 0.5953724620021302 0.3112519523060536 0.062250390461210774 0.031125195230605387 0.25 0.3999999999999999 0.25 0.10000000000000009 0.6152460805494758 0.21985938254315665 0.10992969127157833 0.054964845635789225 0.2 0.4 0.25000000000000006 0.14999999999999994 0.8548561780183772 0.07741003839019879 0.04838127399387425 0.01935250959754972 0.1363636399999999 0.31818181999999995 0.3636363600000001 0.18181818000000005 0.3938905744290921 0.24244376877370047 0.1818328283986037 0.1818328283986037 0.6825396833333333 0.047619046666666685 0.19047619000000005 0.07936508000000002 0.10000000000000006 0.1999999999999999 0.6 0.10000000000000006 </TABLE>
    </DEFINITION>
    <DEFINITION>
      <FOR>Surgery</FOR>
      <GIVEN>Tumour Stage</GIVEN>
      <TABLE>9.689340641444826e-13 0.999999999999031 9.999999999987437e-13 0.9999999999989999 0.19575571883560564 0.8042442811643944 0.5103396510133638 0.48966034898663624 0.9572814071444684 0.0427185928555316 0.9999999999992726 7.27331313593898e-13 0.9999999999996666 3.3333333333322227e-13 </TABLE>
    </DEFINITION>
    <DEFINITION>
      <FOR>Survival &gt; 10y</FOR>
      <GIVEN>Surgery</GIVEN>
      <GIVEN>Adjuvant therapy</GIVEN>
      <GIVEN>Age</GIVEN>
      <GIVEN>Tumour Stage</GIVEN>
      <TABLE>0.99 0.010000000000000009 0.98 0.020000000000000018 0.9200000829716141 0.07999991702838591 0.860000593650587 0.139999406349413 0.8000087569101626 0.1999912430898374 0.770000843242814 0.22999915675718594 0.16999999999999993 0.8300000000000001 0.99 0.010000000000000009 0.98 0.020000000000000018 0.9200001193754243 0.07999988062457572 0.8600008541139103 0.13999914588608972 0.8200116223838192 0.17998837761618086 0.7500012844599243 0.2499987155400757 0.1499999999999999 0.8500000000000001 0.99 0.010000000000000004 0.98 0.020000000000000018 0.9100151699424092 0.08998483005759081 0.8501032484935456 0.14989675150645446 0.8014313178275246 0.1985686821724754 0.7301541627198093 0.26984583728019074 0.14000000000000012 0.8599999999999999 0.9900000000000004 0.0099999999999996 0.98 0.020000000000000018 0.9013451510486424 0.09865484895135758 0.8485048924440799 0.15149510755592008 0.8719836850691617 0.1280163149308383 0.7325186457929928 0.26748135420700725 0.1200000000000001 0.8799999999999999 0.99 0.010000000000000004 0.98 0.020000000000000018 0.8900123835303493 0.10998761646965076 0.8300780417301244 0.16992195826987552 0.7810503184327403 0.2189496815672597 0.690114264229937 0.3098857357700629 0.10000000000000009 0.8999999999999999 0.98 0.020000000000000018 0.96 0.040000000000000036 0.8400045363366104 0.15999546366338957 0.7600269253457657 0.23997307465423431 0.680356378509754 0.3196436214902461 0.6200335860915668 0.3799664139084333 0.08000000000000007 0.9199999999999999 0.99 0.010000000000000009 0.98 0.020000000000000018 0.97 0.030000000000000027 0.9199999999999999 0.08000000000000007 0.8799999999999999 0.1200000000000001 0.81 0.18999999999999995 0.20999999999999996 0.79 0.99 0.010000000000000009 0.98 0.020000000000000018 0.96 0.040000000000000036 0.8899999999999999 0.11000000000000007 0.8400000000000001 0.15999999999999995 0.78 0.21999999999999997 0.16999999999999993 0.8300000000000001 0.99 0.010000000000000009 0.98 0.020000000000000018 0.94 0.06000000000000005 0.8799999999999999 0.1200000000000001 0.7600000000000001 0.23999999999999982 0.77 0.22999999999999998 0.16999999999999993 0.8300000000000001 0.99 0.010000000000000009 0.98 0.020000000000000018 0.9 0.10000000000000002 0.8400000000000005 0.1599999999999995 0.7900000000000063 0.20999999999999377 0.7200000000000006 0.27999999999999936 0.1200000000000001 0.8799999999999999 0.99 0.010000000000000009 0.98 0.020000000000000018 0.8899999999999999 0.11000000000000007 0.8300000000000001 0.16999999999999993 0.7800000000000001 0.21999999999999986 0.69 0.31000000000000005 0.10000000000000009 0.8999999999999999 0.98 0.020000000000000018 0.96 0.040000000000000036 0.8400004044389989 0.15999959556100107 0.7600024006581909 0.23999759934180911 0.6800317895025081 0.31996821049749186 0.620002994412841 0.37999700558715893 0.08000000000000007 0.9199999999999999 0.99 0.010000000000000009 0.98 0.020000000000000018 0.94 0.06000000000000005 0.8799999999999999 0.1200000000000001 0.8200000000000001 0.17999999999999997 0.78 0.21999999999999997 0.19001040417759915 0.8099895958224008 0.99 0.010000000000000009 0.98 0.020000000000000018 0.9199999999999999 0.08000000000000007 0.8799999999999999 0.1200000000000001 0.8500000000000001 0.1499999999999999 0.78 0.21999999999999997 0.17001372433773315 0.8299862756622669 0.99 0.010000000000000004 0.98 0.020000000000000018 0.925590883066851 0.07440911693314901 0.8884318144286079 0.11156818557139218 0.8111015780479893 0.18889842195201073 0.7401203029898876 0.2598796970101123 0.16227242936950617 0.8377275706304939 0.990000000000001 0.009999999999998954 0.98 0.020000000000000018 0.9099465108218059 0.0900534891781941 0.8691858348368604 0.13081416516313957 0.9445169403299457 0.05548305967005428 0.7507882304193942 0.24921176958060573 0.7063234776463834 0.29367652235361663 0.99 0.010000000000000009 0.98 0.020000000000000018 0.8899999999999999 0.11000000000000004 0.8300000000000002 0.1699999999999998 0.7800000000000019 0.21999999999999806 0.6900000000000002 0.30999999999999983 0.10068689014329567 0.8993131098567043 0.98 0.020000000000000018 0.96 0.040000000000000036 0.8400000000000001 0.15999999999999995 0.7600000000000001 0.23999999999999988 0.6800000000000014 0.3199999999999986 0.6200000000000003 0.3799999999999997 0.08000000000000028 0.9199999999999997 0.99 0.010000000000000009 0.98 0.020000000000000018 0.9400000221144371 0.05999997788556286 0.8900001972599765 0.10999980274002352 0.8400025524226118 0.15999744757738818 0.7900010406417611 0.20999895935823887 0.17999999999999997 0.8200000000000001 0.99 0.010000000000000009 0.98 0.020000000000000018 0.9200000415202648 0.0799999584797352 0.8600003490343082 0.13999965096569172 0.820004032953882 0.17999596704611798 0.770001598300586 0.22999840169941396 0.15999999999999995 0.8400000000000001 0.99 0.010000000000000004 0.98 0.020000000000000018 0.9100079403238404 0.08999205967615964 0.8500635049534936 0.14993649504650636 0.810720651474698 0.189279348525302 0.7502906114667934 0.24970938853320662 0.14000000000000012 0.8599999999999999 0.9900000000000007 0.009999999999999292 0.98 0.020000000000000018 0.9014564099927719 0.0985435900072281 0.8507005497229233 0.1492994502770767 0.876161232384496 0.12383876761550401 0.7668886486225047 0.23311135137749525 0.1200000000000001 0.8799999999999999 0.99 0.010000000000000007 0.98 0.020000000000000018 0.8900043074199983 0.10999569258000177 0.8300318986036204 0.16996810139637966 0.780365266936485 0.219634733063515 0.6901505232327244 0.3098494767672756 0.10000000000000009 0.8999999999999999 0.98 0.020000000000000018 0.96 0.040000000000000036 0.8400031517559912 0.1599968482440089 0.7600219795043696 0.2399780204956305 0.6802470605720048 0.3197529394279952 0.6200883803925704 0.37991161960742953 0.08000000000000007 0.9199999999999999 0.98 0.020000000000000018 0.96 0.040000000000000036 0.8799999999999999 0.1200000000000001 0.8200000000000001 0.17999999999999997 0.76 0.24 0.71 0.29000000000000004 0.09000000000000007 0.9099999999999999 0.98 0.020000000000000018 0.97 0.030000000000000027 0.9199999999999999 0.08000000000000007 0.8200000000000001 0.17999999999999997 0.78 0.21999999999999997 0.69 0.31000000000000005 0.3999999999999999 0.6000000000000001 0.90825691 0.09174309000000003 0.98 0.020000000000000018 0.9099999999999999 0.09000000000000007 0.8300000000000001 0.16999999999999993 0.8 0.19999999999999996 0.71 0.29000000000000004 0.07000000000000005 0.9299999999999999 0.99 0.010000000000000009 0.98 0.020000000000000018 0.8799999999999999 0.1200000000000001 0.81 0.18999999999999995 0.77 0.22999999999999998 0.7 0.30000000000000004 0.07000000000000005 0.9299999999999999 0.98 0.020000000000000018 0.98 0.020000000000000018 0.8700000000000001 0.1299999999999999 0.8 0.19999999999999996 0.72 0.28 0.6699999999999999 0.33000000000000007 0.050000000000000044 0.95 0.97 0.030000000000000027 0.9199999999999999 0.08000000000000007 0.8 0.19999999999999996 0.7 0.30000000000000004 0.6099999999999999 0.3900000000000001 0.51 0.49 0.020000000000000018 0.98 0.99 0.010000000000000009 0.98 0.020000000000000018 0.9199999999999999 0.08000000000000007 0.8799999999999999 0.1200000000000001 0.8200000000000001 0.17999999999999997 0.78 0.21999999999999997 0.14000000000000012 0.8599999999999999 0.99 0.010000000000000009 0.98 0.020000000000000018 0.9099999999999999 0.09000000000000007 0.8400000000000001 0.15999999999999995 0.8200000000000001 0.17999999999999997 0.72 0.28 0.1299999999999999 0.8700000000000001 0.99 0.010000000000000009 0.98 0.020000000000000018 0.9099999999999999 0.09000000000000007 0.8500000000000001 0.1499999999999999 0.78 0.21999999999999997 0.72 0.28 0.1200000000000001 0.8799999999999999 0.99 0.010000000000000009 0.98 0.020000000000000018 0.8999999999999999 0.10000000000000009 0.8400000000000001 0.15999999999999995 0.79 0.20999999999999996 0.72 0.28 0.1200000000000001 0.8799999999999999 0.99 0.010000000000000009 0.98 0.020000000000000018 0.8899999999999999 0.11000000000000007 0.8300000000000001 0.16999999999999993 0.78 0.21999999999999997 0.68 0.32 0.09000000000000007 0.9099999999999999 0.98 0.020000000000000018 0.96 0.040000000000000036 0.8400000000000001 0.15999999999999995 0.76 0.24 0.66 0.34 0.5800000000000001 0.41999999999999993 0.06000000000000005 0.94 0.99 0.010000000000000009 0.98 0.020000000000000018 0.9199999999999999 0.08000000000000007 0.8599999999999999 0.14000000000000012 0.79 0.20999999999999996 0.75 0.25 0.1499999999999999 0.8500000000000001 0.99 0.010000000000000009 0.98 0.020000000000000018 0.9199999999999999 0.08000000000000007 0.8599999999999999 0.14000000000000012 0.8200000000000001 0.17999999999999997 0.74 0.26 0.1299999999999999 0.8700000000000001 0.9900050093043005 0.009994990695699483 0.9800000000000001 0.019999999999999938 0.9234486130395837 0.07655138696041631 0.8724117680191059 0.12758823198089408 0.800062198303501 0.19993780169649902 0.6800000000000002 0.31999999999999984 0.10000000000000009 0.8999999999999999 0.9902827309005786 0.009717269099421376 0.9800000000000046 0.0199999999999954 0.9176457805927364 0.08235421940726366 0.8680893999850972 0.13191060001490285 0.7940237671142145 0.20597623288578554 0.6000000000000077 0.39999999999999225 0.06000000000000047 0.9399999999999995 0.99 0.010000000000000002 0.98 0.020000000000000018 0.89 0.10999999999999997 0.8300000000000002 0.1699999999999998 0.7800000000000001 0.21999999999999986 0.6400000000000001 0.3599999999999999 0.050000000000000044 0.95 0.98 0.020000000000000007 0.96 0.040000000000000036 0.8000000000000002 0.19999999999999982 0.7100000000000001 0.2899999999999999 0.5200000000000001 0.47999999999999987 0.48 0.52 0.020000000000000018 0.98 0.990000003414417 0.009999996585583076 0.98 0.020000000000000018 0.9200000226905799 0.07999997730942016 0.8600000449030616 0.13999995509693838 0.8000000250931762 0.1999999749068237 0.72 0.28 0.10000000000000009 0.8999999999999999 0.990000004263514 0.00999999573648601 0.98 0.020000000000000018 0.9200000283332729 0.0799999716667271 0.8600000560695542 0.13999994393044582 0.8200000289050136 0.17999997109498647 0.72 0.28 0.10000000000000009 0.8999999999999999 0.9900006746386445 0.00999932536135549 0.98 0.020000000000000004 0.91000498900136 0.08999501099864 0.8500093955214246 0.14999060447857537 0.800004958280859 0.19999504171914095 0.7100000000000001 0.29 0.050000000000000044 0.95 0.9900233468401511 0.009976653159848808 0.9800000000000004 0.019999999999999605 0.9001898423292748 0.09981015767072518 0.8403429340404648 0.1596570659595352 0.7901782081785508 0.20982179182144917 0.6200000000000014 0.37999999999999856 0.030000000000000027 0.97 0.9900003516789724 0.00999964832102759 0.98 0.020000000000000014 0.8900031087417907 0.10999689125820937 0.8300054201388274 0.1699945798611726 0.7800027720041292 0.21999722799587082 0.6200000000000001 0.3799999999999999 0.010000000000000009 0.99 0.9800004304064452 0.019999569593554766 0.96 0.04000000000000003 0.8400026382242752 0.15999736177572474 0.7600043313113415 0.23999566868865857 0.6100023756339874 0.3899976243660126 0.45999999999999996 0.54 0.010000000000000009 0.99 </TABLE>
    </DEFINITION>
    <DEFINITION>
      <FOR>Tumour Size</FOR>
      <TABLE>0.26291556436582436 0.06322758235599601 0.6738568532781797 </TABLE>
    </DEFINITION>
    <DEFINITION>
      <FOR>Tumour Stage</FOR>
      <GIVEN>Lymph nodes</GIVEN>
      <GIVEN>Tumour Size</GIVEN>
      <GIVEN>Metastasis</GIVEN>
      <TABLE>0.0 0.0 0.0 0.0 0.0 0.0 1.0 0.9999999999951261 9.748050964257582e-13 9.748050964257582e-13 9.748050964257582e-13 9.748050964257582e-13 9.748050964257582e-13 0.0 0.0 0.0 0.0 0.0 0.0 0.0 1.0 0.9999999999950306 9.938225208609047e-13 9.938225208609047e-13 9.938225208609047e-13 9.938225208609047e-13 9.938225208609047e-13 0.0 0.0 0.0 0.0 0.0 0.0 0.0 1.0 5.864484184048227e-13 5.864484184048227e-13 5.864484184048227e-13 0.9999999999970678 5.864484184048227e-13 5.864484184048227e-13 0.0 0.0 0.0 0.0 0.0 0.0 0.0 1.0 6.22503904611692e-13 6.22503904611692e-13 0.9999999999968875 6.22503904611692e-13 6.22503904611692e-13 6.22503904611692e-13 0.0 0.0 0.0 0.0 0.0 0.0 0.0 1.0 8.97533223832699e-13 8.97533223832699e-13 8.97533223832699e-13 0.9999999999955124 8.97533223832699e-13 8.97533223832699e-13 0.0 0.0 0.0 0.0 0.0 0.0 0.0 1.0 3.832917951145143e-13 3.832917951145143e-13 3.832917951145143e-13 3.832917951145143e-13 0.9999999999980835 3.832917951145143e-13 0.0 0.0 0.0 0.0 0.0 0.0 0.0 1.0 5.978927149016087e-13 5.978927149016087e-13 5.978927149016087e-13 5.978927149016087e-13 0.9999999999970106 5.978927149016087e-13 0.0 0.0 0.0 0.0 0.0 0.0 0.0 1.0 8.607753747612498e-13 8.607753747612498e-13 8.607753747612498e-13 8.607753747612498e-13 0.9999999999956961 8.607753747612498e-13 0.0 0.0 0.0 0.0 0.0 0.0 0.0 1.0 3.671036936018873e-13 3.671036936018873e-13 3.671036936018873e-13 3.671036936018873e-13 0.9999999999981645 3.671036936018873e-13 0.0 0.0 0.0 0.0 0.0 0.0 0.0 1.0 9.102886111712274e-13 9.102886111712274e-13 9.102886111712274e-13 9.102886111712274e-13 9.102886111712274e-13 0.9999999999954485 0.0 0.0 0.0 0.0 0.0 0.0 0.0 1.0 9.768472452845481e-13 9.768472452845481e-13 9.768472452845481e-13 9.768472452845481e-13 9.768472452845481e-13 0.9999999999951158 0.0 0.0 0.0 0.0 0.0 0.0 0.0 1.0 7.983171175425944e-13 7.983171175425944e-13 7.983171175425944e-13 7.983171175425944e-13 7.983171175425944e-13 0.9999999999960084 0.0 </TABLE>
    </DEFINITION>
    <DEFINITION>
      <FOR>Virtual Evidence Body Image</FOR>
      <GIVEN>Body Image Pre</GIVEN>
      <GIVEN>Body Image Post</GIVEN>
      <GIVEN>Body Image Follow</GIVEN>
      <TABLE>0.0 1.0 0.0 1.0 0.0 1.0 0.2 0.8 1.0 0.0 0.0 1.0 0.0 1.0 0.0 1.0 0.5 0.5 1.0 0.0 0.0 1.0 0.0 1.0 0.0 1.0 1.0 0.0 1.0 0.0 0.0 1.0 0.5 0.5 1.0 0.0 1.0 0.0 1.0 0.0 0.0 1.0 0.8 0.2 1.0 0.0 1.0 0.0 1.0 0.0 0.0 1.0 0.0 1.0 0.0 1.0 0.2 0.8 1.0 0.0 0.0 1.0 0.0 1.0 0.0 1.0 0.5 0.5 1.0 0.0 0.0 1.0 0.0 1.0 0.0 1.0 1.0 0.0 1.0 0.0 0.0 1.0 0.5 0.5 1.0 0.0 1.0 0.0 1.0 0.0 0.0 1.0 0.8 0.2 1.0 0.0 1.0 0.0 1.0 0.0 0.0 1.0 0.0 1.0 0.0 1.0 0.2 0.8 1.0 0.0 0.0 1.0 0.0 1.0 0.0 1.0 0.5 0.5 1.0 0.0 0.0 1.0 0.0 1.0 0.0 1.0 1.0 0.0 1.0 0.0 0.0 1.0 0.5 0.5 1.0 0.0 1.0 0.0 1.0 0.0 0.0 1.0 0.8 0.2 1.0 0.0 1.0 0.0 1.0 0.0 </TABLE>
    </DEFINITION>
    <DEFINITION>
      <FOR>Virtual Evidence Fatigue</FOR>
      <GIVEN>Fatigue Pre</GIVEN>
      <GIVEN>Fatigue Post</GIVEN>
      <GIVEN>Fatigue Follow</GIVEN>
      <TABLE>0.0 1.0 0.0 1.0 0.0 1.0 0.2 0.8 1.0 0.0 0.0 1.0 0.0 1.0 0.0 1.0 0.5 0.5 1.0 0.0 0.0 1.0 0.0 1.0 0.0 1.0 1.0 0.0 1.0 0.0 0.0 1.0 0.5 0.5 1.0 0.0 1.0 0.0 1.0 0.0 0.0 1.0 0.8 0.2 1.0 0.0 1.0 0.0 1.0 0.0 0.0 1.0 0.0 1.0 0.0 1.0 0.2 0.8 1.0 0.0 0.0 1.0 0.0 1.0 0.0 1.0 0.5 0.5 1.0 0.0 0.0 1.0 0.0 1.0 0.0 1.0 1.0 0.0 1.0 0.0 0.0 1.0 0.5 0.5 1.0 0.0 1.0 0.0 1.0 0.0 0.0 1.0 0.8 0.2 1.0 0.0 1.0 0.0 1.0 0.0 0.0 1.0 0.0 1.0 0.0 1.0 0.2 0.8 1.0 0.0 0.0 1.0 0.0 1.0 0.0 1.0 0.5 0.5 1.0 0.0 0.0 1.0 0.0 1.0 0.0 1.0 1.0 0.0 1.0 0.0 0.0 1.0 0.5 0.5 1.0 0.0 1.0 0.0 1.0 0.0 0.0 1.0 0.8 0.2 1.0 0.0 1.0 0.0 1.0 0.0 0.0 1.0 0.0 1.0 0.0 1.0 0.2 0.8 1.0 0.0 0.0 1.0 0.0 1.0 0.0 1.0 0.5 0.5 1.0 0.0 0.0 1.0 0.0 1.0 0.0 1.0 1.0 0.0 1.0 0.0 0.0 1.0 0.5 0.5 1.0 0.0 1.0 0.0 1.0 0.0 0.0 1.0 0.8 0.2 1.0 0.0 1.0 0.0 1.0 0.0 </TABLE>
    </DEFINITION>
    <DEFINITION>
      <FOR>Virtual Evidence Pain</FOR>
      <GIVEN>Pain Pre</GIVEN>
      <GIVEN>Pain Post</GIVEN>
      <GIVEN>Pain Follow</GIVEN>
      <TABLE>0.0 1.0 0.0 1.0 0.0 1.0 0.2 0.8 1.0 0.0 0.0 1.0 0.0 1.0 0.0 1.0 0.5 0.5 1.0 0.0 0.0 1.0 0.0 1.0 0.0 1.0 1.0 0.0 1.0 0.0 0.0 1.0 0.5 0.5 1.0 0.0 1.0 0.0 1.0 0.0 0.0 1.0 0.8 0.2 1.0 0.0 1.0 0.0 1.0 0.0 0.0 1.0 0.0 1.0 0.0 1.0 0.2 0.8 1.0 0.0 0.0 1.0 0.0 1.0 0.0 1.0 0.5 0.5 1.0 0.0 0.0 1.0 0.0 1.0 0.0 1.0 1.0 0.0 1.0 0.0 0.0 1.0 0.5 0.5 1.0 0.0 1.0 0.0 1.0 0.0 0.0 1.0 0.8 0.2 1.0 0.0 1.0 0.0 1.0 0.0 0.0 1.0 0.0 1.0 0.0 1.0 0.2 0.8 1.0 0.0 0.0 1.0 0.0 1.0 0.0 1.0 0.5 0.5 1.0 0.0 0.0 1.0 0.0 1.0 0.0 1.0 1.0 0.0 1.0 0.0 0.0 1.0 0.5 0.5 1.0 0.0 1.0 0.0 1.0 0.0 0.0 1.0 0.8 0.2 1.0 0.0 1.0 0.0 1.0 0.0 0.0 1.0 0.0 1.0 0.0 1.0 0.2 0.8 1.0 0.0 0.0 1.0 0.0 1.0 0.0 1.0 0.5 0.5 1.0 0.0 0.0 1.0 0.0 1.0 0.0 1.0 1.0 0.0 1.0 0.0 0.0 1.0 0.5 0.5 1.0 0.0 1.0 0.0 1.0 0.0 0.0 1.0 0.8 0.2 1.0 0.0 1.0 0.0 1.0 0.0 </TABLE>
    </DEFINITION>
  </NETWORK>
</BIF>
